<?xml version="1.0"?>
<opencv_storage>
<cascade>
  <stageType>BOOST</stageType>
  <featureType>HAAR</featureType>
  <height>24</height>
  <width>24</width>
  <stageParams>
    <boostType>GAB</boostType>
    <minHitRate>9.9500000476837158e-01</minHitRate>
    <maxFalseAlarm>5.0000000000000000e-01</maxFalseAlarm>
    <weightTrimRate>9.4999999999999996e-01</weightTrimRate>
    <maxDepth>1</maxDepth>
    <maxWeakCount>100</maxWeakCount></stageParams>
  <featureParams>
    <maxCatCount>0</maxCatCount>
    <featSize>1</featSize>
    <mode>BASIC</mode></featureParams>
  <stageNum>19</stageNum>
  <stages>
    <!-- stage 0 -->
    <_>
      <maxWeakCount>4</maxWeakCount>
      <stageThreshold>-1.4674651622772217e+00</stageThreshold>
      <weakClassifiers>
        <_>
          <internalNodes>
            0 -1 94 -4.8339851200580597e-03</internalNodes>
          <leafValues>
            1.5976330637931824e-01 -9.5979899168014526e-01</leafValues></_>
        <_>
          <internalNodes>
            0 -1 44 1.6690377378836274e-03</internalNodes>
          <leafValues>
            -5.0052392482757568e-01 8.3432620763778687e-01</leafValues></_>
        <_>
          <internalNodes>
            0 -1 78 -7.8554591163992882e-03</internalNodes>
          <leafValues>
            4.3893107771873474e-01 -7.0719844102859497e-01</leafValues></_>
        <_>
          <internalNodes>
            0 -1 38 2.7656678576022387e-03</internalNodes>
          <leafValues>
            -4.4607341289520264e-01 7.6656430959701538e-01</leafValues></_></weakClassifiers></_>
    <!-- stage 1 -->
    <_>
      <maxWeakCount>5</maxWeakCount>
      <stageThreshold>-6.5555149316787720e-01</stageThreshold>
      <weakClassifiers>
        <_>
          <internalNodes>
            0 -1 33 5.7302331551909447e-03</internalNodes>
          <leafValues>
            -6.3522011041641235e-01 7.5999999046325684e-01</leafValues></_>
        <_>
          <internalNodes>
            0 -1 12 1.5011642244644463e-04</internalNodes>
          <leafValues>
            -7.4010509252548218e-01 3.9544323086738586e-01</leafValues></_>
        <_>
          <internalNodes>
            0 -1 58 4.2567672207951546e-03</internalNodes>
          <leafValues>
            -3.8253176212310791e-01 8.8638389110565186e-01</leafValues></_>
        <_>
          <internalNodes>
            0 -1 93 -5.4499381221830845e-03</internalNodes>
          <leafValues>
            3.8265219330787659e-01 -7.9996645450592041e-01</leafValues></_>
        <_>
          <internalNodes>
            0 -1 23 1.9602056592702866e-02</internalNodes>
          <leafValues>
            -4.1589501500129700e-01 7.8484606742858887e-01</leafValues></_></weakClassifiers></_>
    <!-- stage 2 -->
    <_>
      <maxWeakCount>5</maxWeakCount>
      <stageThreshold>-1.1615926027297974e+00</stageThreshold>
      <weakClassifiers>
        <_>
          <internalNodes>
            0 -1 43 -2.5014571845531464e-02</internalNodes>
          <leafValues>
            7.4468082189559937e-01 -6.1993771791458130e-01</leafValues></_>
        <_>
          <internalNodes>
            0 -1 65 -3.5861045122146606e-02</internalNodes>
          <leafValues>
            9.1540765762329102e-01 -3.5111919045448303e-01</leafValues></_>
        <_>
          <internalNodes>
            0 -1 91 1.6267147148028016e-03</internalNodes>
          <leafValues>
            3.3159539103507996e-01 -9.2208629846572876e-01</leafValues></_>
        <_>
          <internalNodes>
            0 -1 14 8.8823260739445686e-05</internalNodes>
          <leafValues>
            -6.7637413740158081e-01 3.7205007672309875e-01</leafValues></_>
        <_>
          <internalNodes>
            0 -1 11 5.6929583661258221e-04</internalNodes>
          <leafValues>
            3.0582374334335327e-01 -8.9418119192123413e-01</leafValues></_></weakClassifiers></_>
    <!-- stage 3 -->
    <_>
      <maxWeakCount>4</maxWeakCount>
      <stageThreshold>-1.4433876276016235e+00</stageThreshold>
      <weakClassifiers>
        <_>
          <internalNodes>
            0 -1 66 4.4477604329586029e-02</internalNodes>
          <leafValues>
            -5.9036141633987427e-01 8.8888889551162720e-01</leafValues></_>
        <_>
          <internalNodes>
            0 -1 27 -1.7997968196868896e-01</internalNodes>
          <leafValues>
            6.1786454916000366e-01 -6.3418722152709961e-01</leafValues></_>
        <_>
          <internalNodes>
            0 -1 95 -8.0343079753220081e-04</internalNodes>
          <leafValues>
            4.2616766691207886e-01 -9.1228234767913818e-01</leafValues></_>
        <_>
          <internalNodes>
            0 -1 98 -1.0427197412354872e-04</internalNodes>
          <leafValues>
            4.2212262749671936e-01 -6.4500665664672852e-01</leafValues></_></weakClassifiers></_>
    <!-- stage 4 -->
    <_>
      <maxWeakCount>6</maxWeakCount>
      <stageThreshold>-1.4355783462524414e+00</stageThreshold>
      <weakClassifiers>
        <_>
          <internalNodes>
            0 -1 63 1.0852964594960213e-02</internalNodes>
          <leafValues>
            -5.8536583185195923e-01 6.9999998807907104e-01</leafValues></_>
        <_>
          <internalNodes>
            0 -1 40 -8.4947332739830017e-02</internalNodes>
          <leafValues>
            6.6872787475585938e-01 -4.0491932630538940e-01</leafValues></_>
        <_>
          <internalNodes>
            0 -1 84 -9.1350544244050980e-03</internalNodes>
          <leafValues>
            -8.4702605009078979e-01 3.3929699659347534e-01</leafValues></_>
        <_>
          <internalNodes>
            0 -1 1 9.0075039770454168e-04</internalNodes>
          <leafValues>
            -6.1390548944473267e-01 3.5675236582756042e-01</leafValues></_>
        <_>
          <internalNodes>
            0 -1 87 -1.6406770737376064e-04</internalNodes>
          <leafValues>
            4.1295501589775085e-01 -7.1384167671203613e-01</leafValues></_>
        <_>
          <internalNodes>
            0 -1 30 6.0154041275382042e-03</internalNodes>
          <leafValues>
            -4.2750090360641479e-01 6.0293191671371460e-01</leafValues></_></weakClassifiers></_>
    <!-- stage 5 -->
    <_>
      <maxWeakCount>5</maxWeakCount>
      <stageThreshold>-1.3424577713012695e+00</stageThreshold>
      <weakClassifiers>
        <_>
          <internalNodes>
            0 -1 41 4.2582549154758453e-02</internalNodes>
          <leafValues>
            -5.6547617912292480e-01 8.1250000000000000e-01</leafValues></_>
        <_>
          <internalNodes>
            0 -1 18 -1.0193666676059365e-03</internalNodes>
          <leafValues>
            2.3990549147129059e-01 -8.7706345319747925e-01</leafValues></_>
        <_>
          <internalNodes>
            0 -1 53 -1.0770838707685471e-03</internalNodes>
          <leafValues>
            5.0462847948074341e-01 -3.8114628195762634e-01</leafValues></_>
        <_>
          <internalNodes>
            0 -1 88 -2.9512459877878428e-04</internalNodes>
          <leafValues>
            3.1168639659881592e-01 -6.4384490251541138e-01</leafValues></_>
        <_>
          <internalNodes>
            0 -1 73 2.3605243768543005e-03</internalNodes>
          <leafValues>
            -2.5290313363075256e-01 8.4048950672149658e-01</leafValues></_></weakClassifiers></_>
    <!-- stage 6 -->
    <_>
      <maxWeakCount>5</maxWeakCount>
      <stageThreshold>-1.1707661151885986e+00</stageThreshold>
      <weakClassifiers>
        <_>
          <internalNodes>
            0 -1 92 -6.1194144655019045e-04</internalNodes>
          <leafValues>
            -8.1967212259769440e-02 -8.0540537834167480e-01</leafValues></_>
        <_>
          <internalNodes>
            0 -1 13 -5.2069764933548868e-05</internalNodes>
          <leafValues>
            2.2846870124340057e-01 -6.7348659038543701e-01</leafValues></_>
        <_>
          <internalNodes>
            0 -1 81 -9.8755478393286467e-04</internalNodes>
          <leafValues>
            3.4789517521858215e-01 -5.3153574466705322e-01</leafValues></_>
        <_>
          <internalNodes>
            0 -1 15 -1.5167911350727081e-01</internalNodes>
          <leafValues>
            6.3069933652877808e-01 -3.4072852134704590e-01</leafValues></_>
        <_>
          <internalNodes>
            0 -1 17 -6.9235190749168396e-02</internalNodes>
          <leafValues>
            -7.7955138683319092e-01 2.7843493223190308e-01</leafValues></_></weakClassifiers></_>
    <!-- stage 7 -->
    <_>
      <maxWeakCount>5</maxWeakCount>
      <stageThreshold>-8.2934826612472534e-01</stageThreshold>
      <weakClassifiers>
        <_>
          <internalNodes>
            0 -1 70 -3.1378407031297684e-02</internalNodes>
          <leafValues>
            6.5853661298751831e-01 -5.8409786224365234e-01</leafValues></_>
        <_>
          <internalNodes>
            0 -1 0 2.0876759663224220e-04</internalNodes>
          <leafValues>
            -6.4285337924957275e-01 2.9011744260787964e-01</leafValues></_>
        <_>
          <internalNodes>
            0 -1 51 -4.3166675604879856e-03</internalNodes>
          <leafValues>
            6.1797589063644409e-01 -3.8723239302635193e-01</leafValues></_>
        <_>
          <internalNodes>
            0 -1 39 -1.7033234238624573e-02</internalNodes>
          <leafValues>
            5.9918993711471558e-01 -3.4776151180267334e-01</leafValues></_>
        <_>
          <internalNodes>
            0 -1 9 1.8299242481589317e-02</internalNodes>
          <leafValues>
            1.9962607324123383e-01 -1.</leafValues></_></weakClassifiers></_>
    <!-- stage 8 -->
    <_>
      <maxWeakCount>5</maxWeakCount>
      <stageThreshold>-4.8921445012092590e-01</stageThreshold>
      <weakClassifiers>
        <_>
          <internalNodes>
            0 -1 86 1.3703545928001404e-01</internalNodes>
          <leafValues>
            -6.2091505527496338e-01 4.1935482621192932e-01</leafValues></_>
        <_>
          <internalNodes>
            0 -1 99 -2.5157211348414421e-04</internalNodes>
          <leafValues>
            2.0183277130126953e-01 -8.2555043697357178e-01</leafValues></_>
        <_>
          <internalNodes>
            0 -1 85 -8.2120494917035103e-03</internalNodes>
          <leafValues>
            -8.0736976861953735e-01 2.0722270011901855e-01</leafValues></_>
        <_>
          <internalNodes>
            0 -1 5 -1.6590235754847527e-03</internalNodes>
          <leafValues>
            3.5563758015632629e-01 -5.6602257490158081e-01</leafValues></_>
        <_>
          <internalNodes>
            0 -1 32 1.8844672013074160e-04</internalNodes>
          <leafValues>
            -5.2173024415969849e-01 3.9439070224761963e-01</leafValues></_></weakClassifiers></_>
    <!-- stage 9 -->
    <_>
      <maxWeakCount>6</maxWeakCount>
      <stageThreshold>-1.1730641126632690e+00</stageThreshold>
      <weakClassifiers>
        <_>
          <internalNodes>
            0 -1 52 -1.9758328795433044e-02</internalNodes>
          <leafValues>
            7.1428573131561279e-01 -5.6756758689880371e-01</leafValues></_>
        <_>
          <internalNodes>
            0 -1 71 -6.2432175036519766e-04</internalNodes>
          <leafValues>
            5.4300445318222046e-01 -5.6050938367843628e-01</leafValues></_>
        <_>
          <internalNodes>
            0 -1 3 4.0296986699104309e-03</internalNodes>
          <leafValues>
            -4.3859410285949707e-01 4.4176027178764343e-01</leafValues></_>
        <_>
          <internalNodes>
            0 -1 10 7.4760231655091047e-04</internalNodes>
          <leafValues>
            3.5217398405075073e-01 -5.4579174518585205e-01</leafValues></_>
        <_>
          <internalNodes>
            0 -1 42 2.9838259797543287e-03</internalNodes>
          <leafValues>
            -2.4737229943275452e-01 7.7425390481948853e-01</leafValues></_>
        <_>
          <internalNodes>
            0 -1 36 4.9922876060009003e-03</internalNodes>
          <leafValues>
            -5.9154909849166870e-01 4.3966636061668396e-01</leafValues></_></weakClassifiers></_>
    <!-- stage 10 -->
    <_>
      <maxWeakCount>7</maxWeakCount>
      <stageThreshold>-1.0954351425170898e+00</stageThreshold>
      <weakClassifiers>
        <_>
          <internalNodes>
            0 -1 35 1.0336566716432571e-02</internalNodes>
          <leafValues>
            -5.8282208442687988e-01 6.1904764175415039e-01</leafValues></_>
        <_>
          <internalNodes>
            0 -1 64 7.7252373099327087e-02</internalNodes>
          <leafValues>
            1.5556158125400543e-01 -8.7053298950195313e-01</leafValues></_>
        <_>
          <internalNodes>
            0 -1 76 1.0725906118750572e-02</internalNodes>
          <leafValues>
            -5.4798799753189087e-01 2.7826884388923645e-01</leafValues></_>
        <_>
          <internalNodes>
            0 -1 29 3.6344445106806234e-05</internalNodes>
          <leafValues>
            -4.9043840169906616e-01 3.6057582497596741e-01</leafValues></_>
        <_>
          <internalNodes>
            0 -1 45 6.1382120475172997e-04</internalNodes>
          <leafValues>
            -3.2505485415458679e-01 5.5396789312362671e-01</leafValues></_>
        <_>
          <internalNodes>
            0 -1 89 -8.7846943642944098e-04</internalNodes>
          <leafValues>
            3.3342900872230530e-01 -5.8945137262344360e-01</leafValues></_>
        <_>
          <internalNodes>
            0 -1 62 -1.3316940516233444e-02</internalNodes>
          <leafValues>
            8.5880029201507568e-01 -2.4544127285480499e-01</leafValues></_></weakClassifiers></_>
    <!-- stage 11 -->
    <_>
      <maxWeakCount>5</maxWeakCount>
      <stageThreshold>-8.7200289964675903e-01</stageThreshold>
      <weakClassifiers>
        <_>
          <internalNodes>
            0 -1 24 7.9385831952095032e-02</internalNodes>
          <leafValues>
            -5.3623187541961670e-01 9.1304349899291992e-01</leafValues></_>
        <_>
          <internalNodes>
            0 -1 4 1.1182986199855804e-03</internalNodes>
          <leafValues>
            -6.8849819898605347e-01 3.5953056812286377e-01</leafValues></_>
        <_>
          <internalNodes>
            0 -1 19 1.6588484868407249e-03</internalNodes>
          <leafValues>
            2.5496608018875122e-01 -8.7516891956329346e-01</leafValues></_>
        <_>
          <internalNodes>
            0 -1 46 -2.9902104288339615e-03</internalNodes>
          <leafValues>
            4.4896450638771057e-01 -4.1580337285995483e-01</leafValues></_>
        <_>
          <internalNodes>
            0 -1 67 1.1731293052434921e-03</internalNodes>
          <leafValues>
            -2.6909714937210083e-01 6.8740147352218628e-01</leafValues></_></weakClassifiers></_>
    <!-- stage 12 -->
    <_>
      <maxWeakCount>6</maxWeakCount>
      <stageThreshold>-8.8299137353897095e-01</stageThreshold>
      <weakClassifiers>
        <_>
          <internalNodes>
            0 -1 7 -3.6475174129009247e-02</internalNodes>
          <leafValues>
            5.3846156597137451e-01 -5.6231003999710083e-01</leafValues></_>
        <_>
          <internalNodes>
            0 -1 79 -3.3375358907505870e-04</internalNodes>
          <leafValues>
            2.9336896538734436e-01 -5.5707168579101563e-01</leafValues></_>
        <_>
          <internalNodes>
            0 -1 80 -1.1594571173191071e-02</internalNodes>
          <leafValues>
            2.3502880334854126e-01 -6.7286020517349243e-01</leafValues></_>
        <_>
          <internalNodes>
            0 -1 83 -4.6523679047822952e-02</internalNodes>
          <leafValues>
            -9.0477252006530762e-01 2.1360409259796143e-01</leafValues></_>
        <_>
          <internalNodes>
            0 -1 31 5.0047868862748146e-03</internalNodes>
          <leafValues>
            -3.6863833665847778e-01 5.4813623428344727e-01</leafValues></_>
        <_>
          <internalNodes>
            0 -1 20 5.7360879145562649e-03</internalNodes>
          <leafValues>
            2.1384418010711670e-01 -9.7476089000701904e-01</leafValues></_></weakClassifiers></_>
    <!-- stage 13 -->
    <_>
      <maxWeakCount>7</maxWeakCount>
      <stageThreshold>-6.9946473836898804e-01</stageThreshold>
      <weakClassifiers>
        <_>
          <internalNodes>
            0 -1 16 1.1126222088932991e-03</internalNodes>
          <leafValues>
            -6.5671640634536743e-01 1.1999999731779099e-01</leafValues></_>
        <_>
          <internalNodes>
            0 -1 72 6.3556749373674393e-03</internalNodes>
          <leafValues>
            1.1715182662010193e-01 -9.6885919570922852e-01</leafValues></_>
        <_>
          <internalNodes>
            0 -1 87 -3.4973642323166132e-04</internalNodes>
          <leafValues>
            3.6574384570121765e-01 -5.9361779689788818e-01</leafValues></_>
        <_>
          <internalNodes>
            0 -1 37 2.6229522190988064e-03</internalNodes>
          <leafValues>
            -3.4932798147201538e-01 6.6114830970764160e-01</leafValues></_>
        <_>
          <internalNodes>
            0 -1 57 -2.6275742799043655e-02</internalNodes>
          <leafValues>
            -7.0737999677658081e-01 2.7411058545112610e-01</leafValues></_>
        <_>
          <internalNodes>
            0 -1 54 7.1862906217575073e-02</internalNodes>
          <leafValues>
            2.2841869294643402e-01 -8.3911496400833130e-01</leafValues></_>
        <_>
          <internalNodes>
            0 -1 68 7.3468061164021492e-03</internalNodes>
          <leafValues>
            -3.3874914050102234e-01 5.7133358716964722e-01</leafValues></_></weakClassifiers></_>
    <!-- stage 14 -->
    <_>
      <maxWeakCount>4</maxWeakCount>
      <stageThreshold>-8.4870022535324097e-01</stageThreshold>
      <weakClassifiers>
        <_>
          <internalNodes>
            0 -1 49 5.1219873130321503e-02</internalNodes>
          <leafValues>
            -5.7957959175109863e-01 8.2857143878936768e-01</leafValues></_>
        <_>
          <internalNodes>
            0 -1 56 1.3365632295608521e-01</internalNodes>
          <leafValues>
            -4.0083965659141541e-01 8.7864768505096436e-01</leafValues></_>
        <_>
          <internalNodes>
            0 -1 25 7.4600719381123781e-04</internalNodes>
          <leafValues>
            -4.0477296710014343e-01 4.7592744231224060e-01</leafValues></_>
        <_>
          <internalNodes>
            0 -1 50 -2.4459719657897949e-02</internalNodes>
          <leafValues>
            6.3329637050628662e-01 -3.4420847892761230e-01</leafValues></_></weakClassifiers></_>
    <!-- stage 15 -->
    <_>
      <maxWeakCount>5</maxWeakCount>
      <stageThreshold>-9.3199181556701660e-01</stageThreshold>
      <weakClassifiers>
        <_>
          <internalNodes>
            0 -1 74 -1.4251389540731907e-02</internalNodes>
          <leafValues>
            9.2592591047286987e-01 -5.5425220727920532e-01</leafValues></_>
        <_>
          <internalNodes>
            0 -1 69 6.2175532802939415e-03</internalNodes>
          <leafValues>
            -6.6159063577651978e-01 4.3045327067375183e-01</leafValues></_>
        <_>
          <internalNodes>
            0 -1 59 8.5901009151712060e-04</internalNodes>
          <leafValues>
            -3.4720388054847717e-01 5.7275134325027466e-01</leafValues></_>
        <_>
          <internalNodes>
            0 -1 90 -1.0967686539515853e-03</internalNodes>
          <leafValues>
            3.8694858551025391e-01 -6.8198710680007935e-01</leafValues></_>
        <_>
          <internalNodes>
            0 -1 28 4.9143113195896149e-02</internalNodes>
          <leafValues>
            3.9308685064315796e-01 -6.1564803123474121e-01</leafValues></_></weakClassifiers></_>
    <!-- stage 16 -->
    <_>
      <maxWeakCount>5</maxWeakCount>
      <stageThreshold>-8.4743440151214600e-01</stageThreshold>
      <weakClassifiers>
        <_>
          <internalNodes>
            0 -1 55 1.0734675452113152e-03</internalNodes>
          <leafValues>
            -5.8385092020034790e-01 5.2173912525177002e-01</leafValues></_>
        <_>
          <internalNodes>
            0 -1 34 1.0118476347997785e-03</internalNodes>
          <leafValues>
            -3.8332629203796387e-01 5.5275326967239380e-01</leafValues></_>
        <_>
          <internalNodes>
            0 -1 21 -2.3436467349529266e-01</internalNodes>
          <leafValues>
            4.7377654910087585e-01 -4.2756950855255127e-01</leafValues></_>
        <_>
          <internalNodes>
            0 -1 26 2.0211115479469299e-03</internalNodes>
          <leafValues>
            -4.6187826991081238e-01 4.5931118726730347e-01</leafValues></_>
        <_>
          <internalNodes>
            0 -1 6 5.6317094713449478e-03</internalNodes>
          <leafValues>
            2.7379545569419861e-01 -8.1334495544433594e-01</leafValues></_></weakClassifiers></_>
    <!-- stage 17 -->
    <_>
      <maxWeakCount>6</maxWeakCount>
      <stageThreshold>-8.2606387138366699e-01</stageThreshold>
      <weakClassifiers>
        <_>
          <internalNodes>
            0 -1 60 -1.6800789162516594e-02</internalNodes>
          <leafValues>
            1. -5.7863503694534302e-01</leafValues></_>
        <_>
          <internalNodes>
            0 -1 61 5.5188643746078014e-03</internalNodes>
          <leafValues>
            -4.9267575144767761e-01 6.4112865924835205e-01</leafValues></_>
        <_>
          <internalNodes>
            0 -1 48 2.8001682832837105e-02</internalNodes>
          <leafValues>
            -2.2010211646556854e-01 8.6240261793136597e-01</leafValues></_>
        <_>
          <internalNodes>
            0 -1 8 -8.7131699547171593e-03</internalNodes>
          <leafValues>
            -8.4084832668304443e-01 3.4860008955001831e-01</leafValues></_>
        <_>
          <internalNodes>
            0 -1 97 1.3956229668110609e-03</internalNodes>
          <leafValues>
            -3.1801623106002808e-01 8.4221416711807251e-01</leafValues></_>
        <_>
          <internalNodes>
            0 -1 82 -3.2663089223206043e-03</internalNodes>
          <leafValues>
            5.4170882701873779e-01 -5.0059586763381958e-01</leafValues></_></weakClassifiers></_>
    <!-- stage 18 -->
    <_>
      <maxWeakCount>6</maxWeakCount>
      <stageThreshold>-9.9815452098846436e-01</stageThreshold>
      <weakClassifiers>
        <_>
          <internalNodes>
            0 -1 77 -2.0738849416375160e-03</internalNodes>
          <leafValues>
            1. -6.7295598983764648e-01</leafValues></_>
        <_>
          <internalNodes>
            0 -1 75 2.5137972552329302e-03</internalNodes>
          <leafValues>
            -5.4038137197494507e-01 6.5328454971313477e-01</leafValues></_>
        <_>
          <internalNodes>
            0 -1 96 8.1249501090496778e-04</internalNodes>
          <leafValues>
            -3.9210182428359985e-01 1.</leafValues></_>
        <_>
          <internalNodes>
            0 -1 2 3.0651819542981684e-04</internalNodes>
          <leafValues>
            4.9093082547187805e-01 -8.8393783569335938e-01</leafValues></_>
        <_>
          <internalNodes>
            0 -1 22 -2.3466669954359531e-03</internalNodes>
          <leafValues>
            8.0621403455734253e-01 -4.5597997307777405e-01</leafValues></_>
        <_>
          <internalNodes>
            0 -1 47 -3.2678090035915375e-02</internalNodes>
          <leafValues>
            -6.8986022472381592e-01 6.5624821186065674e-01</leafValues></_></weakClassifiers></_></stages>
  <features>
    <_>
      <rects>
        <_>
          0 0 2 3 -1.</_>
        <_>
          1 0 1 3 2.</_></rects>
      <tilted>0</tilted></_>
    <_>
      <rects>
        <_>
          0 5 2 9 -1.</_>
        <_>
          1 5 1 9 2.</_></rects>
      <tilted>0</tilted></_>
    <_>
      <rects>
        <_>
          0 6 2 2 -1.</_>
        <_>
          0 6 1 1 2.</_>
        <_>
          1 7 1 1 2.</_></rects>
      <tilted>0</tilted></_>
    <_>
      <rects>
        <_>
          0 6 4 9 -1.</_>
        <_>
          2 6 2 9 2.</_></rects>
      <tilted>0</tilted></_>
    <_>
      <rects>
        <_>
          0 9 2 7 -1.</_>
        <_>
          1 9 1 7 2.</_></rects>
      <tilted>0</tilted></_>
    <_>
      <rects>
        <_>
          0 11 1 12 -1.</_>
        <_>
          0 17 1 6 2.</_></rects>
      <tilted>0</tilted></_>
    <_>
      <rects>
        <_>
          0 12 1 9 -1.</_>
        <_>
          0 15 1 3 3.</_></rects>
      <tilted>0</tilted></_>
    <_>
      <rects>
        <_>
          0 12 14 8 -1.</_>
        <_>
          0 12 7 4 2.</_>
        <_>
          7 16 7 4 2.</_></rects>
      <tilted>0</tilted></_>
    <_>
      <rects>
        <_>
          0 13 2 8 -1.</_>
        <_>
          0 17 2 4 2.</_></rects>
      <tilted>0</tilted></_>
    <_>
      <rects>
        <_>
          0 15 4 9 -1.</_>
        <_>
          0 18 4 3 3.</_></rects>
      <tilted>0</tilted></_>
    <_>
      <rects>
        <_>
          0 15 12 7 -1.</_>
        <_>
          6 15 6 7 2.</_></rects>
      <tilted>0</tilted></_>
    <_>
      <rects>
        <_>
          0 17 2 6 -1.</_>
        <_>
          0 20 2 3 2.</_></rects>
      <tilted>0</tilted></_>
    <_>
      <rects>
        <_>
          0 19 2 3 -1.</_>
        <_>
          1 19 1 3 2.</_></rects>
      <tilted>0</tilted></_>
    <_>
      <rects>
        <_>
          0 22 3 2 -1.</_>
        <_>
          0 23 3 1 2.</_></rects>
      <tilted>0</tilted></_>
    <_>
      <rects>
        <_>
          1 0 2 2 -1.</_>
        <_>
          2 0 1 2 2.</_></rects>
      <tilted>0</tilted></_>
    <_>
      <rects>
        <_>
          1 2 22 7 -1.</_>
        <_>
          12 2 11 7 2.</_></rects>
      <tilted>0</tilted></_>
    <_>
      <rects>
        <_>
          1 6 1 6 -1.</_>
        <_>
          1 8 1 2 3.</_></rects>
      <tilted>0</tilted></_>
    <_>
      <rects>
        <_>
          1 8 13 16 -1.</_>
        <_>
          1 16 13 8 2.</_></rects>
      <tilted>0</tilted></_>
    <_>
      <rects>
        <_>
          1 16 3 8 -1.</_>
        <_>
          1 20 3 4 2.</_></rects>
      <tilted>0</tilted></_>
    <_>
      <rects>
        <_>
          1 18 2 4 -1.</_>
        <_>
          2 18 1 4 2.</_></rects>
      <tilted>0</tilted></_>
    <_>
      <rects>
        <_>
          1 18 4 6 -1.</_>
        <_>
          1 20 4 2 3.</_></rects>
      <tilted>0</tilted></_>
    <_>
      <rects>
        <_>
          2 0 22 14 -1.</_>
        <_>
          13 0 11 14 2.</_></rects>
      <tilted>0</tilted></_>
    <_>
      <rects>
        <_>
          2 4 21 3 -1.</_>
        <_>
          2 5 21 1 3.</_></rects>
      <tilted>0</tilted></_>
    <_>
      <rects>
        <_>
          2 5 9 7 -1.</_>
        <_>
          5 5 3 7 3.</_></rects>
      <tilted>0</tilted></_>
    <_>
      <rects>
        <_>
          2 10 21 2 -1.</_>
        <_>
          9 10 7 2 3.</_></rects>
      <tilted>0</tilted></_>
    <_>
      <rects>
        <_>
          2 12 2 11 -1.</_>
        <_>
          3 12 1 11 2.</_></rects>
      <tilted>0</tilted></_>
    <_>
      <rects>
        <_>
          2 13 6 6 -1.</_>
        <_>
          2 15 6 2 3.</_></rects>
      <tilted>0</tilted></_>
    <_>
      <rects>
        <_>
          4 0 20 10 -1.</_>
        <_>
          14 0 10 10 2.</_></rects>
      <tilted>0</tilted></_>
    <_>
      <rects>
        <_>
          4 0 20 12 -1.</_>
        <_>
          4 6 20 6 2.</_></rects>
      <tilted>0</tilted></_>
    <_>
      <rects>
        <_>
          4 1 2 2 -1.</_>
        <_>
          5 1 1 2 2.</_></rects>
      <tilted>0</tilted></_>
    <_>
      <rects>
        <_>
          5 2 19 3 -1.</_>
        <_>
          5 3 19 1 3.</_></rects>
      <tilted>0</tilted></_>
    <_>
      <rects>
        <_>
          5 5 10 3 -1.</_>
        <_>
          5 6 10 1 3.</_></rects>
      <tilted>0</tilted></_>
    <_>
      <rects>
        <_>
          5 15 1 9 -1.</_>
        <_>
          5 18 1 3 3.</_></rects>
      <tilted>0</tilted></_>
    <_>
      <rects>
        <_>
          6 3 3 9 -1.</_>
        <_>
          7 3 1 9 3.</_></rects>
      <tilted>0</tilted></_>
    <_>
      <rects>
        <_>
          6 3 5 3 -1.</_>
        <_>
          6 4 5 1 3.</_></rects>
      <tilted>0</tilted></_>
    <_>
      <rects>
        <_>
          6 5 3 11 -1.</_>
        <_>
          7 5 1 11 3.</_></rects>
      <tilted>0</tilted></_>
    <_>
      <rects>
        <_>
          6 23 18 1 -1.</_>
        <_>
          12 23 6 1 3.</_></rects>
      <tilted>0</tilted></_>
    <_>
      <rects>
        <_>
          7 5 4 3 -1.</_>
        <_>
          7 6 4 1 3.</_></rects>
      <tilted>0</tilted></_>
    <_>
      <rects>
        <_>
          7 5 7 3 -1.</_>
        <_>
          7 6 7 1 3.</_></rects>
      <tilted>0</tilted></_>
    <_>
      <rects>
        <_>
          7 8 6 10 -1.</_>
        <_>
          9 8 2 10 3.</_></rects>
      <tilted>0</tilted></_>
    <_>
      <rects>
        <_>
          8 1 9 23 -1.</_>
        <_>
          11 1 3 23 3.</_></rects>
      <tilted>0</tilted></_>
    <_>
      <rects>
        <_>
          8 2 6 14 -1.</_>
        <_>
          10 2 2 14 3.</_></rects>
      <tilted>0</tilted></_>
    <_>
      <rects>
        <_>
          8 5 3 4 -1.</_>
        <_>
          9 5 1 4 3.</_></rects>
      <tilted>0</tilted></_>
    <_>
      <rects>
        <_>
          8 13 9 4 -1.</_>
        <_>
          11 13 3 4 3.</_></rects>
      <tilted>0</tilted></_>
    <_>
      <rects>
        <_>
          9 5 3 2 -1.</_>
        <_>
          10 5 1 2 3.</_></rects>
      <tilted>0</tilted></_>
    <_>
      <rects>
        <_>
          9 13 3 1 -1.</_>
        <_>
          10 13 1 1 3.</_></rects>
      <tilted>0</tilted></_>
    <_>
      <rects>
        <_>
          9 14 9 1 -1.</_>
        <_>
          12 14 3 1 3.</_></rects>
      <tilted>0</tilted></_>
    <_>
      <rects>
        <_>
          10 0 5 24 -1.</_>
        <_>
          10 12 5 12 2.</_></rects>
      <tilted>0</tilted></_>
    <_>
      <rects>
        <_>
          10 1 12 8 -1.</_>
        <_>
          10 1 6 4 2.</_>
        <_>
          16 5 6 4 2.</_></rects>
      <tilted>0</tilted></_>
    <_>
      <rects>
        <_>
          10 2 6 17 -1.</_>
        <_>
          12 2 2 17 3.</_></rects>
      <tilted>0</tilted></_>
    <_>
      <rects>
        <_>
          10 3 12 8 -1.</_>
        <_>
          10 3 6 4 2.</_>
        <_>
          16 7 6 4 2.</_></rects>
      <tilted>0</tilted></_>
    <_>
      <rects>
        <_>
          10 6 2 8 -1.</_>
        <_>
          11 6 1 8 2.</_></rects>
      <tilted>0</tilted></_>
    <_>
      <rects>
        <_>
          10 7 6 3 -1.</_>
        <_>
          12 7 2 3 3.</_></rects>
      <tilted>0</tilted></_>
    <_>
      <rects>
        <_>
          10 13 3 3 -1.</_>
        <_>
          11 13 1 3 3.</_></rects>
      <tilted>0</tilted></_>
    <_>
      <rects>
        <_>
          11 3 7 21 -1.</_>
        <_>
          11 10 7 7 3.</_></rects>
      <tilted>0</tilted></_>
    <_>
      <rects>
        <_>
          11 4 1 3 -1.</_>
        <_>
          11 5 1 1 3.</_></rects>
      <tilted>0</tilted></_>
    <_>
      <rects>
        <_>
          11 6 12 11 -1.</_>
        <_>
          15 6 4 11 3.</_></rects>
      <tilted>0</tilted></_>
    <_>
      <rects>
        <_>
          11 7 8 15 -1.</_>
        <_>
          11 12 8 5 3.</_></rects>
      <tilted>0</tilted></_>
    <_>
      <rects>
        <_>
          11 10 3 5 -1.</_>
        <_>
          12 10 1 5 3.</_></rects>
      <tilted>0</tilted></_>
    <_>
      <rects>
        <_>
          11 12 2 5 -1.</_>
        <_>
          12 12 1 5 2.</_></rects>
      <tilted>0</tilted></_>
    <_>
      <rects>
        <_>
          12 0 3 23 -1.</_>
        <_>
          13 0 1 23 3.</_></rects>
      <tilted>0</tilted></_>
    <_>
      <rects>
        <_>
          12 1 3 19 -1.</_>
        <_>
          13 1 1 19 3.</_></rects>
      <tilted>0</tilted></_>
    <_>
      <rects>
        <_>
          12 1 3 22 -1.</_>
        <_>
          13 1 1 22 3.</_></rects>
      <tilted>0</tilted></_>
    <_>
      <rects>
        <_>
          12 2 3 10 -1.</_>
        <_>
          13 2 1 10 3.</_></rects>
      <tilted>0</tilted></_>
    <_>
      <rects>
        <_>
          12 2 7 21 -1.</_>
        <_>
          12 9 7 7 3.</_></rects>
      <tilted>0</tilted></_>
    <_>
      <rects>
        <_>
          12 4 4 13 -1.</_>
        <_>
          14 4 2 13 2.</_></rects>
      <tilted>0</tilted></_>
    <_>
      <rects>
        <_>
          12 5 6 16 -1.</_>
        <_>
          14 5 2 16 3.</_></rects>
      <tilted>0</tilted></_>
    <_>
      <rects>
        <_>
          12 6 3 1 -1.</_>
        <_>
          13 6 1 1 3.</_></rects>
      <tilted>0</tilted></_>
    <_>
      <rects>
        <_>
          12 7 12 6 -1.</_>
        <_>
          12 9 12 2 3.</_></rects>
      <tilted>0</tilted></_>
    <_>
      <rects>
        <_>
          12 17 9 4 -1.</_>
        <_>
          15 17 3 4 3.</_></rects>
      <tilted>0</tilted></_>
    <_>
      <rects>
        <_>
          13 4 6 10 -1.</_>
        <_>
          15 4 2 10 3.</_></rects>
      <tilted>0</tilted></_>
    <_>
      <rects>
        <_>
          13 9 2 1 -1.</_>
        <_>
          14 9 1 1 2.</_></rects>
      <tilted>0</tilted></_>
    <_>
      <rects>
        <_>
          13 10 3 4 -1.</_>
        <_>
          13 12 3 2 2.</_></rects>
      <tilted>0</tilted></_>
    <_>
      <rects>
        <_>
          13 11 3 2 -1.</_>
        <_>
          14 11 1 2 3.</_></rects>
      <tilted>0</tilted></_>
    <_>
      <rects>
        <_>
          14 1 2 16 -1.</_>
        <_>
          15 1 1 16 2.</_></rects>
      <tilted>0</tilted></_>
    <_>
      <rects>
        <_>
          15 6 3 6 -1.</_>
        <_>
          15 9 3 3 2.</_></rects>
      <tilted>0</tilted></_>
    <_>
      <rects>
        <_>
          15 12 7 12 -1.</_>
        <_>
          15 16 7 4 3.</_></rects>
      <tilted>0</tilted></_>
    <_>
      <rects>
        <_>
          16 3 4 6 -1.</_>
        <_>
          16 5 4 2 3.</_></rects>
      <tilted>0</tilted></_>
    <_>
      <rects>
        <_>
          16 9 8 6 -1.</_>
        <_>
          20 9 4 6 2.</_></rects>
      <tilted>0</tilted></_>
    <_>
      <rects>
        <_>
          16 20 4 1 -1.</_>
        <_>
          18 20 2 1 2.</_></rects>
      <tilted>0</tilted></_>
    <_>
      <rects>
        <_>
          18 0 6 13 -1.</_>
        <_>
          21 0 3 13 2.</_></rects>
      <tilted>0</tilted></_>
    <_>
      <rects>
        <_>
          18 2 6 1 -1.</_>
        <_>
          21 2 3 1 2.</_></rects>
      <tilted>0</tilted></_>
    <_>
      <rects>
        <_>
          18 6 6 3 -1.</_>
        <_>
          21 6 3 3 2.</_></rects>
      <tilted>0</tilted></_>
    <_>
      <rects>
        <_>
          18 13 6 11 -1.</_>
        <_>
          21 13 3 11 2.</_></rects>
      <tilted>0</tilted></_>
    <_>
      <rects>
        <_>
          18 17 6 2 -1.</_>
        <_>
          21 17 3 2 2.</_></rects>
      <tilted>0</tilted></_>
    <_>
      <rects>
        <_>
          18 20 6 2 -1.</_>
        <_>
          21 20 3 2 2.</_></rects>
      <tilted>0</tilted></_>
    <_>
      <rects>
        <_>
          19 2 5 22 -1.</_>
        <_>
          19 13 5 11 2.</_></rects>
      <tilted>0</tilted></_>
    <_>
      <rects>
        <_>
          19 17 2 2 -1.</_>
        <_>
          20 17 1 2 2.</_></rects>
      <tilted>0</tilted></_>
    <_>
      <rects>
        <_>
          19 19 2 3 -1.</_>
        <_>
          20 19 1 3 2.</_></rects>
      <tilted>0</tilted></_>
    <_>
      <rects>
        <_>
          19 19 4 1 -1.</_>
        <_>
          21 19 2 1 2.</_></rects>
      <tilted>0</tilted></_>
    <_>
      <rects>
        <_>
          19 20 4 2 -1.</_>
        <_>
          21 20 2 2 2.</_></rects>
      <tilted>0</tilted></_>
    <_>
      <rects>
        <_>
          19 20 2 4 -1.</_>
        <_>
          19 22 2 2 2.</_></rects>
      <tilted>0</tilted></_>
    <_>
      <rects>
        <_>
          20 6 4 1 -1.</_>
        <_>
          22 6 2 1 2.</_></rects>
      <tilted>0</tilted></_>
    <_>
      <rects>
        <_>
          20 14 4 8 -1.</_>
        <_>
          22 14 2 8 2.</_></rects>
      <tilted>0</tilted></_>
    <_>
      <rects>
        <_>
          20 16 4 8 -1.</_>
        <_>
          22 16 2 8 2.</_></rects>
      <tilted>0</tilted></_>
    <_>
      <rects>
        <_>
          20 21 4 3 -1.</_>
        <_>
          22 21 2 3 2.</_></rects>
      <tilted>0</tilted></_>
    <_>
      <rects>
        <_>
          21 15 2 2 -1.</_>
        <_>
          21 16 2 1 2.</_></rects>
      <tilted>0</tilted></_>
    <_>
      <rects>
        <_>
          22 3 2 3 -1.</_>
        <_>
          22 4 2 1 3.</_></rects>
      <tilted>0</tilted></_>
    <_>
      <rects>
        <_>
          22 4 2 1 -1.</_>
        <_>
          23 4 1 1 2.</_></rects>
      <tilted>0</tilted></_>
    <_>
      <rects>
        <_>
          22 17 2 3 -1.</_>
        <_>
          23 17 1 3 2.</_></rects>
      <tilted>0</tilted></_></features></cascade>
</opencv_storage>
