<?xml version="1.0"?>
<opencv_storage>
<cascade>
  <stageType>BOOST</stageType>
  <featureType>HAAR</featureType>
  <height>16</height>
  <width>24</width>
  <stageParams>
    <boostType>GAB</boostType>
    <minHitRate>9.9500000476837158e-01</minHitRate>
    <maxFalseAlarm>5.0000000000000000e-01</maxFalseAlarm>
    <weightTrimRate>9.4999999999999996e-01</weightTrimRate>
    <maxDepth>1</maxDepth>
    <maxWeakCount>100</maxWeakCount></stageParams>
  <featureParams>
    <maxCatCount>0</maxCatCount>
    <featSize>1</featSize>
    <mode>BASIC</mode></featureParams>
  <stageNum>7</stageNum>
  <stages>
    <!-- stage 0 -->
    <_>
      <maxWeakCount>13</maxWeakCount>
      <stageThreshold>-1.4625267982482910e+00</stageThreshold>
      <weakClassifiers>
        <_>
          <internalNodes>
            0 -1 63 7.8205792233347893e-03</internalNodes>
          <leafValues>
            -5.8823531866073608e-01 6.0429447889328003e-01</leafValues></_>
        <_>
          <internalNodes>
            0 -1 70 6.7664496600627899e-04</internalNodes>
          <leafValues>
            2.6242536306381226e-01 -5.5180478096008301e-01</leafValues></_>
        <_>
          <internalNodes>
            0 -1 20 2.1106313914060593e-02</internalNodes>
          <leafValues>
            1.8166449666023254e-01 -7.1755427122116089e-01</leafValues></_>
        <_>
          <internalNodes>
            0 -1 29 2.0726319402456284e-02</internalNodes>
          <leafValues>
            -1.5868483483791351e-01 7.3779636621475220e-01</leafValues></_>
        <_>
          <internalNodes>
            0 -1 18 -9.8955929279327393e-02</internalNodes>
          <leafValues>
            5.1842731237411499e-01 -2.7983427047729492e-01</leafValues></_>
        <_>
          <internalNodes>
            0 -1 23 3.8628178834915161e-01</internalNodes>
          <leafValues>
            1.6815027594566345e-01 -9.3832945823669434e-01</leafValues></_>
        <_>
          <internalNodes>
            0 -1 62 -9.5920499006751925e-05</internalNodes>
          <leafValues>
            1.9810189306735992e-01 -4.3755504488945007e-01</leafValues></_>
        <_>
          <internalNodes>
            0 -1 34 1.9626938737928867e-03</internalNodes>
          <leafValues>
            1.8333026766777039e-01 -4.7626891732215881e-01</leafValues></_>
        <_>
          <internalNodes>
            0 -1 33 -3.3837039954960346e-03</internalNodes>
          <leafValues>
            4.5174109935760498e-01 -3.0363103747367859e-01</leafValues></_>
        <_>
          <internalNodes>
            0 -1 26 2.4909276515245438e-02</internalNodes>
          <leafValues>
            1.6401422023773193e-01 -9.1617792844772339e-01</leafValues></_>
        <_>
          <internalNodes>
            0 -1 66 3.1245348509401083e-04</internalNodes>
          <leafValues>
            1.1880593001842499e-01 -5.6429463624954224e-01</leafValues></_>
        <_>
          <internalNodes>
            0 -1 64 2.7120973914861679e-02</internalNodes>
          <leafValues>
            7.4063196778297424e-02 -8.6236506700515747e-01</leafValues></_>
        <_>
          <internalNodes>
            0 -1 57 4.5180348679423332e-03</internalNodes>
          <leafValues>
            1.1990173906087875e-01 -5.2462023496627808e-01</leafValues></_></weakClassifiers></_>
    <!-- stage 1 -->
    <_>
      <maxWeakCount>14</maxWeakCount>
      <stageThreshold>-1.2503389120101929e+00</stageThreshold>
      <weakClassifiers>
        <_>
          <internalNodes>
            0 -1 65 1.5261315274983644e-03</internalNodes>
          <leafValues>
            -5.9263956546783447e-01 6.3749998807907104e-01</leafValues></_>
        <_>
          <internalNodes>
            0 -1 4 5.3976410999894142e-03</internalNodes>
          <leafValues>
            -2.4512684345245361e-01 6.0393428802490234e-01</leafValues></_>
        <_>
          <internalNodes>
            0 -1 16 1.0789320804178715e-03</internalNodes>
          <leafValues>
            2.8792306780815125e-01 -3.5786548256874084e-01</leafValues></_>
        <_>
          <internalNodes>
            0 -1 14 4.4139288365840912e-02</internalNodes>
          <leafValues>
            1.2758915126323700e-01 -6.6420578956604004e-01</leafValues></_>
        <_>
          <internalNodes>
            0 -1 22 1.2467090785503387e-01</internalNodes>
          <leafValues>
            1.0750050097703934e-01 -7.0857298374176025e-01</leafValues></_>
        <_>
          <internalNodes>
            0 -1 10 -4.8387136310338974e-02</internalNodes>
          <leafValues>
            3.8286057114601135e-01 -2.4243214726448059e-01</leafValues></_>
        <_>
          <internalNodes>
            0 -1 30 -4.1327988728880882e-03</internalNodes>
          <leafValues>
            3.4500807523727417e-01 -2.9424554109573364e-01</leafValues></_>
        <_>
          <internalNodes>
            0 -1 42 -4.2059188708662987e-03</internalNodes>
          <leafValues>
            5.3356367349624634e-01 -2.0820812880992889e-01</leafValues></_>
        <_>
          <internalNodes>
            0 -1 38 -5.6588025763630867e-03</internalNodes>
          <leafValues>
            6.9521206617355347e-01 -8.0572985112667084e-02</leafValues></_>
        <_>
          <internalNodes>
            0 -1 50 -3.2755203545093536e-02</internalNodes>
          <leafValues>
            4.1014909744262695e-01 -2.2777917981147766e-01</leafValues></_>
        <_>
          <internalNodes>
            0 -1 41 -1.8917779671028256e-03</internalNodes>
          <leafValues>
            -5.5868434906005859e-01 1.5888243913650513e-01</leafValues></_>
        <_>
          <internalNodes>
            0 -1 44 1.5021000057458878e-02</internalNodes>
          <leafValues>
            9.0062640607357025e-02 -7.7628022432327271e-01</leafValues></_>
        <_>
          <internalNodes>
            0 -1 7 9.7601050511002541e-03</internalNodes>
          <leafValues>
            -1.2457511574029922e-01 9.1590029001235962e-01</leafValues></_>
        <_>
          <internalNodes>
            0 -1 21 3.8359779864549637e-02</internalNodes>
          <leafValues>
            1.7620749771595001e-01 -6.4597082138061523e-01</leafValues></_></weakClassifiers></_>
    <!-- stage 2 -->
    <_>
      <maxWeakCount>13</maxWeakCount>
      <stageThreshold>-1.3313328027725220e+00</stageThreshold>
      <weakClassifiers>
        <_>
          <internalNodes>
            0 -1 51 -1.7360165715217590e-02</internalNodes>
          <leafValues>
            6.9497400522232056e-01 -5.6558877229690552e-01</leafValues></_>
        <_>
          <internalNodes>
            0 -1 12 -3.6052213981747627e-03</internalNodes>
          <leafValues>
            3.7774026393890381e-01 -3.9786195755004883e-01</leafValues></_>
        <_>
          <internalNodes>
            0 -1 28 6.5872587263584137e-02</internalNodes>
          <leafValues>
            -2.0153488218784332e-01 8.3220463991165161e-01</leafValues></_>
        <_>
          <internalNodes>
            0 -1 31 -1.2313684076070786e-01</internalNodes>
          <leafValues>
            5.1266425848007202e-01 -1.7482298612594604e-01</leafValues></_>
        <_>
          <internalNodes>
            0 -1 59 -2.3806013166904449e-02</internalNodes>
          <leafValues>
            6.6382557153701782e-01 -1.8750239908695221e-01</leafValues></_>
        <_>
          <internalNodes>
            0 -1 32 -3.1315735541284084e-03</internalNodes>
          <leafValues>
            5.2837657928466797e-01 -2.2656351327896118e-01</leafValues></_>
        <_>
          <internalNodes>
            0 -1 58 1.8608318641781807e-02</internalNodes>
          <leafValues>
            1.7580363154411316e-01 -7.6093262434005737e-01</leafValues></_>
        <_>
          <internalNodes>
            0 -1 48 -1.0978937149047852e-02</internalNodes>
          <leafValues>
            7.4722057580947876e-01 -1.4542518556118011e-01</leafValues></_>
        <_>
          <internalNodes>
            0 -1 71 2.5408689907635562e-05</internalNodes>
          <leafValues>
            -3.4714674949645996e-01 3.0609214305877686e-01</leafValues></_>
        <_>
          <internalNodes>
            0 -1 0 8.3300545811653137e-02</internalNodes>
          <leafValues>
            -1.5659178793430328e-01 6.2392723560333252e-01</leafValues></_>
        <_>
          <internalNodes>
            0 -1 3 -2.3815646767616272e-02</internalNodes>
          <leafValues>
            3.1767022609710693e-01 -3.7591359019279480e-01</leafValues></_>
        <_>
          <internalNodes>
            0 -1 24 -3.6387473344802856e-02</internalNodes>
          <leafValues>
            -8.1635951995849609e-01 1.0543248802423477e-01</leafValues></_>
        <_>
          <internalNodes>
            0 -1 40 -3.1493178103119135e-03</internalNodes>
          <leafValues>
            6.9299900531768799e-01 -1.8043984472751617e-01</leafValues></_></weakClassifiers></_>
    <!-- stage 3 -->
    <_>
      <maxWeakCount>15</maxWeakCount>
      <stageThreshold>-1.5158126354217529e+00</stageThreshold>
      <weakClassifiers>
        <_>
          <internalNodes>
            0 -1 61 3.0750930309295654e-03</internalNodes>
          <leafValues>
            -6.2425839900970459e-01 6.0228896141052246e-01</leafValues></_>
        <_>
          <internalNodes>
            0 -1 52 -1.7473441548645496e-03</internalNodes>
          <leafValues>
            4.9317160248756409e-01 -3.7925288081169128e-01</leafValues></_>
        <_>
          <internalNodes>
            0 -1 45 8.8102743029594421e-03</internalNodes>
          <leafValues>
            -2.2510762512683868e-01 6.2837803363800049e-01</leafValues></_>
        <_>
          <internalNodes>
            0 -1 36 -7.4870437383651733e-03</internalNodes>
          <leafValues>
            7.6088023185729980e-01 -1.9192549586296082e-01</leafValues></_>
        <_>
          <internalNodes>
            0 -1 56 1.6101637855172157e-02</internalNodes>
          <leafValues>
            2.5744372606277466e-01 -6.0118049383163452e-01</leafValues></_>
        <_>
          <internalNodes>
            0 -1 27 3.7912509869784117e-03</internalNodes>
          <leafValues>
            1.9179695844650269e-01 -6.7612725496292114e-01</leafValues></_>
        <_>
          <internalNodes>
            0 -1 37 -1.8339930102229118e-02</internalNodes>
          <leafValues>
            4.9308401346206665e-01 -3.0005544424057007e-01</leafValues></_>
        <_>
          <internalNodes>
            0 -1 46 8.1882858648896217e-04</internalNodes>
          <leafValues>
            2.7694308757781982e-01 -5.5280596017837524e-01</leafValues></_>
        <_>
          <internalNodes>
            0 -1 1 1.5529491007328033e-01</internalNodes>
          <leafValues>
            -2.1685324609279633e-01 8.5706764459609985e-01</leafValues></_>
        <_>
          <internalNodes>
            0 -1 6 -2.1599943283945322e-03</internalNodes>
          <leafValues>
            6.2438386678695679e-01 -1.9146630167961121e-01</leafValues></_>
        <_>
          <internalNodes>
            0 -1 15 2.6960897957906127e-04</internalNodes>
          <leafValues>
            2.3476310074329376e-01 -5.0335657596588135e-01</leafValues></_>
        <_>
          <internalNodes>
            0 -1 35 -6.3761956989765167e-02</internalNodes>
          <leafValues>
            3.5797378420829773e-01 -3.3366134762763977e-01</leafValues></_>
        <_>
          <internalNodes>
            0 -1 49 -4.1013497859239578e-02</internalNodes>
          <leafValues>
            8.6786890029907227e-01 -1.3552263379096985e-01</leafValues></_>
        <_>
          <internalNodes>
            0 -1 19 3.2119572162628174e-02</internalNodes>
          <leafValues>
            2.2800999879837036e-01 -6.0342073440551758e-01</leafValues></_>
        <_>
          <internalNodes>
            0 -1 39 -4.8456178046762943e-03</internalNodes>
          <leafValues>
            6.8843972682952881e-01 -2.5143346190452576e-01</leafValues></_></weakClassifiers></_>
    <!-- stage 4 -->
    <_>
      <maxWeakCount>10</maxWeakCount>
      <stageThreshold>-1.1117887496948242e+00</stageThreshold>
      <weakClassifiers>
        <_>
          <internalNodes>
            0 -1 60 3.5823516082018614e-03</internalNodes>
          <leafValues>
            -6.0858893394470215e-01 7.9522186517715454e-01</leafValues></_>
        <_>
          <internalNodes>
            0 -1 17 -3.6573337856680155e-03</internalNodes>
          <leafValues>
            6.8248426914215088e-01 -3.2599252462387085e-01</leafValues></_>
        <_>
          <internalNodes>
            0 -1 68 4.5912832138128579e-04</internalNodes>
          <leafValues>
            2.7436777949333191e-01 -7.1130567789077759e-01</leafValues></_>
        <_>
          <internalNodes>
            0 -1 69 4.0239701047539711e-04</internalNodes>
          <leafValues>
            -2.3035593330860138e-01 9.4747734069824219e-01</leafValues></_>
        <_>
          <internalNodes>
            0 -1 9 -1.8385145813226700e-03</internalNodes>
          <leafValues>
            6.5213912725448608e-01 -2.9234895110130310e-01</leafValues></_>
        <_>
          <internalNodes>
            0 -1 25 -6.6483058035373688e-02</internalNodes>
          <leafValues>
            6.1262756586074829e-01 -3.6441797018051147e-01</leafValues></_>
        <_>
          <internalNodes>
            0 -1 55 5.5096502183005214e-04</internalNodes>
          <leafValues>
            3.5487580299377441e-01 -5.9394377470016479e-01</leafValues></_>
        <_>
          <internalNodes>
            0 -1 8 -1.8786204745993018e-03</internalNodes>
          <leafValues>
            6.4986151456832886e-01 -3.2951462268829346e-01</leafValues></_>
        <_>
          <internalNodes>
            0 -1 13 3.1040876638144255e-03</internalNodes>
          <leafValues>
            -2.3866599798202515e-01 8.0850321054458618e-01</leafValues></_>
        <_>
          <internalNodes>
            0 -1 43 -1.3799383305013180e-03</internalNodes>
          <leafValues>
            -3.0284464359283447e-01 6.4885252714157104e-01</leafValues></_></weakClassifiers></_>
    <!-- stage 5 -->
    <_>
      <maxWeakCount>4</maxWeakCount>
      <stageThreshold>-9.2456644773483276e-01</stageThreshold>
      <weakClassifiers>
        <_>
          <internalNodes>
            0 -1 2 1.6871981788426638e-03</internalNodes>
          <leafValues>
            -7.4095237255096436e-01 1.</leafValues></_>
        <_>
          <internalNodes>
            0 -1 53 -1.1904474813491106e-03</internalNodes>
          <leafValues>
            -5.0032216310501099e-01 8.2786089181900024e-01</leafValues></_>
        <_>
          <internalNodes>
            0 -1 47 -5.4764669388532639e-02</internalNodes>
          <leafValues>
            8.5776782035827637e-01 -3.9326322078704834e-01</leafValues></_>
        <_>
          <internalNodes>
            0 -1 67 3.6244315560907125e-04</internalNodes>
          <leafValues>
            7.2018927335739136e-01 -5.4105973243713379e-01</leafValues></_></weakClassifiers></_>
    <!-- stage 6 -->
    <_>
      <maxWeakCount>3</maxWeakCount>
      <stageThreshold>-7.9431360960006714e-01</stageThreshold>
      <weakClassifiers>
        <_>
          <internalNodes>
            0 -1 5 1.4110246673226357e-02</internalNodes>
          <leafValues>
            1. -9.2286115884780884e-01</leafValues></_>
        <_>
          <internalNodes>
            0 -1 54 -1.0341770015656948e-02</internalNodes>
          <leafValues>
            -8.7145245075225830e-01 1.</leafValues></_>
        <_>
          <internalNodes>
            0 -1 11 5.0927866250276566e-03</internalNodes>
          <leafValues>
            1. -7.1628791093826294e-01</leafValues></_></weakClassifiers></_></stages>
  <features>
    <_>
      <rects>
        <_>
          0 2 8 11 -1.</_>
        <_>
          4 2 4 11 2.</_></rects>
      <tilted>0</tilted></_>
    <_>
      <rects>
        <_>
          0 2 12 13 -1.</_>
        <_>
          4 2 4 13 3.</_></rects>
      <tilted>0</tilted></_>
    <_>
      <rects>
        <_>
          0 3 1 9 -1.</_>
        <_>
          0 6 1 3 3.</_></rects>
      <tilted>0</tilted></_>
    <_>
      <rects>
        <_>
          0 5 10 10 -1.</_>
        <_>
          0 10 10 5 2.</_></rects>
      <tilted>0</tilted></_>
    <_>
      <rects>
        <_>
          0 6 2 3 -1.</_>
        <_>
          0 7 2 1 3.</_></rects>
      <tilted>0</tilted></_>
    <_>
      <rects>
        <_>
          0 8 3 4 -1.</_>
        <_>
          0 10 3 2 2.</_></rects>
      <tilted>0</tilted></_>
    <_>
      <rects>
        <_>
          0 10 1 4 -1.</_>
        <_>
          0 12 1 2 2.</_></rects>
      <tilted>0</tilted></_>
    <_>
      <rects>
        <_>
          1 3 3 3 -1.</_>
        <_>
          2 3 1 3 3.</_></rects>
      <tilted>0</tilted></_>
    <_>
      <rects>
        <_>
          1 3 6 1 -1.</_>
        <_>
          3 3 2 1 3.</_></rects>
      <tilted>0</tilted></_>
    <_>
      <rects>
        <_>
          1 4 6 4 -1.</_>
        <_>
          1 4 3 2 2.</_>
        <_>
          4 6 3 2 2.</_></rects>
      <tilted>0</tilted></_>
    <_>
      <rects>
        <_>
          2 1 22 12 -1.</_>
        <_>
          2 1 11 6 2.</_>
        <_>
          13 7 11 6 2.</_></rects>
      <tilted>0</tilted></_>
    <_>
      <rects>
        <_>
          2 8 4 1 -1.</_>
        <_>
          4 8 2 1 2.</_></rects>
      <tilted>0</tilted></_>
    <_>
      <rects>
        <_>
          2 10 1 6 -1.</_>
        <_>
          2 13 1 3 2.</_></rects>
      <tilted>0</tilted></_>
    <_>
      <rects>
        <_>
          3 1 1 6 -1.</_>
        <_>
          3 3 1 2 3.</_></rects>
      <tilted>0</tilted></_>
    <_>
      <rects>
        <_>
          3 8 20 8 -1.</_>
        <_>
          3 12 20 4 2.</_></rects>
      <tilted>0</tilted></_>
    <_>
      <rects>
        <_>
          3 13 2 1 -1.</_>
        <_>
          4 13 1 1 2.</_></rects>
      <tilted>0</tilted></_>
    <_>
      <rects>
        <_>
          4 0 1 10 -1.</_>
        <_>
          4 5 1 5 2.</_></rects>
      <tilted>0</tilted></_>
    <_>
      <rects>
        <_>
          4 6 4 9 -1.</_>
        <_>
          6 6 2 9 2.</_></rects>
      <tilted>0</tilted></_>
    <_>
      <rects>
        <_>
          4 6 20 4 -1.</_>
        <_>
          14 6 10 4 2.</_></rects>
      <tilted>0</tilted></_>
    <_>
      <rects>
        <_>
          4 9 16 4 -1.</_>
        <_>
          4 9 8 2 2.</_>
        <_>
          12 11 8 2 2.</_></rects>
      <tilted>0</tilted></_>
    <_>
      <rects>
        <_>
          4 9 16 6 -1.</_>
        <_>
          4 12 16 3 2.</_></rects>
      <tilted>0</tilted></_>
    <_>
      <rects>
        <_>
          4 14 18 2 -1.</_>
        <_>
          10 14 6 2 3.</_></rects>
      <tilted>0</tilted></_>
    <_>
      <rects>
        <_>
          5 5 13 9 -1.</_>
        <_>
          5 8 13 3 3.</_></rects>
      <tilted>0</tilted></_>
    <_>
      <rects>
        <_>
          6 1 18 14 -1.</_>
        <_>
          6 8 18 7 2.</_></rects>
      <tilted>0</tilted></_>
    <_>
      <rects>
        <_>
          6 6 3 9 -1.</_>
        <_>
          6 9 3 3 3.</_></rects>
      <tilted>0</tilted></_>
    <_>
      <rects>
        <_>
          6 6 14 10 -1.</_>
        <_>
          13 6 7 10 2.</_></rects>
      <tilted>0</tilted></_>
    <_>
      <rects>
        <_>
          6 15 18 1 -1.</_>
        <_>
          15 15 9 1 2.</_></rects>
      <tilted>0</tilted></_>
    <_>
      <rects>
        <_>
          7 0 6 2 -1.</_>
        <_>
          7 0 3 1 2.</_>
        <_>
          10 1 3 1 2.</_></rects>
      <tilted>0</tilted></_>
    <_>
      <rects>
        <_>
          7 4 16 3 -1.</_>
        <_>
          15 4 8 3 2.</_></rects>
      <tilted>0</tilted></_>
    <_>
      <rects>
        <_>
          7 5 16 1 -1.</_>
        <_>
          15 5 8 1 2.</_></rects>
      <tilted>0</tilted></_>
    <_>
      <rects>
        <_>
          8 3 4 6 -1.</_>
        <_>
          10 3 2 6 2.</_></rects>
      <tilted>0</tilted></_>
    <_>
      <rects>
        <_>
          8 4 16 6 -1.</_>
        <_>
          16 4 8 6 2.</_></rects>
      <tilted>0</tilted></_>
    <_>
      <rects>
        <_>
          8 5 2 7 -1.</_>
        <_>
          9 5 1 7 2.</_></rects>
      <tilted>0</tilted></_>
    <_>
      <rects>
        <_>
          8 5 2 10 -1.</_>
        <_>
          9 5 1 10 2.</_></rects>
      <tilted>0</tilted></_>
    <_>
      <rects>
        <_>
          8 10 1 6 -1.</_>
        <_>
          8 12 1 2 3.</_></rects>
      <tilted>0</tilted></_>
    <_>
      <rects>
        <_>
          10 3 14 6 -1.</_>
        <_>
          17 3 7 6 2.</_></rects>
      <tilted>0</tilted></_>
    <_>
      <rects>
        <_>
          10 4 3 9 -1.</_>
        <_>
          11 4 1 9 3.</_></rects>
      <tilted>0</tilted></_>
    <_>
      <rects>
        <_>
          10 5 9 11 -1.</_>
        <_>
          13 5 3 11 3.</_></rects>
      <tilted>0</tilted></_>
    <_>
      <rects>
        <_>
          11 5 3 6 -1.</_>
        <_>
          12 5 1 6 3.</_></rects>
      <tilted>0</tilted></_>
    <_>
      <rects>
        <_>
          11 5 3 7 -1.</_>
        <_>
          12 5 1 7 3.</_></rects>
      <tilted>0</tilted></_>
    <_>
      <rects>
        <_>
          11 9 3 3 -1.</_>
        <_>
          12 9 1 3 3.</_></rects>
      <tilted>0</tilted></_>
    <_>
      <rects>
        <_>
          12 6 1 3 -1.</_>
        <_>
          12 7 1 1 3.</_></rects>
      <tilted>0</tilted></_>
    <_>
      <rects>
        <_>
          12 6 2 4 -1.</_>
        <_>
          13 6 1 4 2.</_></rects>
      <tilted>0</tilted></_>
    <_>
      <rects>
        <_>
          12 9 6 4 -1.</_>
        <_>
          15 9 3 4 2.</_></rects>
      <tilted>0</tilted></_>
    <_>
      <rects>
        <_>
          13 6 8 3 -1.</_>
        <_>
          13 7 8 1 3.</_></rects>
      <tilted>0</tilted></_>
    <_>
      <rects>
        <_>
          13 9 8 6 -1.</_>
        <_>
          13 9 4 3 2.</_>
        <_>
          17 12 4 3 2.</_></rects>
      <tilted>0</tilted></_>
    <_>
      <rects>
        <_>
          14 14 3 2 -1.</_>
        <_>
          15 14 1 2 3.</_></rects>
      <tilted>0</tilted></_>
    <_>
      <rects>
        <_>
          15 0 8 11 -1.</_>
        <_>
          19 0 4 11 2.</_></rects>
      <tilted>0</tilted></_>
    <_>
      <rects>
        <_>
          16 2 6 2 -1.</_>
        <_>
          18 2 2 2 3.</_></rects>
      <tilted>0</tilted></_>
    <_>
      <rects>
        <_>
          16 3 2 10 -1.</_>
        <_>
          16 8 2 5 2.</_></rects>
      <tilted>0</tilted></_>
    <_>
      <rects>
        <_>
          16 4 8 6 -1.</_>
        <_>
          20 4 4 6 2.</_></rects>
      <tilted>0</tilted></_>
    <_>
      <rects>
        <_>
          16 10 6 6 -1.</_>
        <_>
          18 10 2 6 3.</_></rects>
      <tilted>0</tilted></_>
    <_>
      <rects>
        <_>
          17 0 6 2 -1.</_>
        <_>
          17 1 6 1 2.</_></rects>
      <tilted>0</tilted></_>
    <_>
      <rects>
        <_>
          17 1 4 1 -1.</_>
        <_>
          19 1 2 1 2.</_></rects>
      <tilted>0</tilted></_>
    <_>
      <rects>
        <_>
          17 11 6 3 -1.</_>
        <_>
          20 11 3 3 2.</_></rects>
      <tilted>0</tilted></_>
    <_>
      <rects>
        <_>
          17 13 3 2 -1.</_>
        <_>
          18 13 1 2 3.</_></rects>
      <tilted>0</tilted></_>
    <_>
      <rects>
        <_>
          18 0 6 6 -1.</_>
        <_>
          18 0 3 3 2.</_>
        <_>
          21 3 3 3 2.</_></rects>
      <tilted>0</tilted></_>
    <_>
      <rects>
        <_>
          18 9 1 6 -1.</_>
        <_>
          18 11 1 2 3.</_></rects>
      <tilted>0</tilted></_>
    <_>
      <rects>
        <_>
          18 10 3 6 -1.</_>
        <_>
          18 12 3 2 3.</_></rects>
      <tilted>0</tilted></_>
    <_>
      <rects>
        <_>
          19 2 1 10 -1.</_>
        <_>
          19 7 1 5 2.</_></rects>
      <tilted>0</tilted></_>
    <_>
      <rects>
        <_>
          19 3 3 4 -1.</_>
        <_>
          20 3 1 4 3.</_></rects>
      <tilted>0</tilted></_>
    <_>
      <rects>
        <_>
          19 4 2 10 -1.</_>
        <_>
          20 4 1 10 2.</_></rects>
      <tilted>0</tilted></_>
    <_>
      <rects>
        <_>
          19 12 1 2 -1.</_>
        <_>
          19 13 1 1 2.</_></rects>
      <tilted>0</tilted></_>
    <_>
      <rects>
        <_>
          20 2 2 10 -1.</_>
        <_>
          20 2 1 5 2.</_>
        <_>
          21 7 1 5 2.</_></rects>
      <tilted>0</tilted></_>
    <_>
      <rects>
        <_>
          20 2 4 12 -1.</_>
        <_>
          20 2 2 6 2.</_>
        <_>
          22 8 2 6 2.</_></rects>
      <tilted>0</tilted></_>
    <_>
      <rects>
        <_>
          20 13 3 1 -1.</_>
        <_>
          21 13 1 1 3.</_></rects>
      <tilted>0</tilted></_>
    <_>
      <rects>
        <_>
          21 3 2 1 -1.</_>
        <_>
          22 3 1 1 2.</_></rects>
      <tilted>0</tilted></_>
    <_>
      <rects>
        <_>
          21 14 3 1 -1.</_>
        <_>
          22 14 1 1 3.</_></rects>
      <tilted>0</tilted></_>
    <_>
      <rects>
        <_>
          22 3 2 1 -1.</_>
        <_>
          23 3 1 1 2.</_></rects>
      <tilted>0</tilted></_>
    <_>
      <rects>
        <_>
          22 14 1 2 -1.</_>
        <_>
          22 15 1 1 2.</_></rects>
      <tilted>0</tilted></_>
    <_>
      <rects>
        <_>
          23 3 1 4 -1.</_>
        <_>
          23 5 1 2 2.</_></rects>
      <tilted>0</tilted></_>
    <_>
      <rects>
        <_>
          23 7 1 9 -1.</_>
        <_>
          23 10 1 3 3.</_></rects>
      <tilted>0</tilted></_></features></cascade>
</opencv_storage>
