<?xml version="1.0"?>
<opencv_storage>
<cascade>
  <stageType>BOOST</stageType>
  <featureType>HAAR</featureType>
  <height>12</height>
  <width>18</width>
  <stageParams>
    <boostType>GAB</boostType>
    <minHitRate>9.9500000476837158e-01</minHitRate>
    <maxFalseAlarm>5.0000000000000000e-01</maxFalseAlarm>
    <weightTrimRate>9.4999999999999996e-01</weightTrimRate>
    <maxDepth>1</maxDepth>
    <maxWeakCount>100</maxWeakCount></stageParams>
  <featureParams>
    <maxCatCount>0</maxCatCount>
    <featSize>1</featSize>
    <mode>BASIC</mode></featureParams>
  <stageNum>7</stageNum>
  <stages>
    <!-- stage 0 -->
    <_>
      <maxWeakCount>14</maxWeakCount>
      <stageThreshold>-1.5001626014709473e+00</stageThreshold>
      <weakClassifiers>
        <_>
          <internalNodes>
            0 -1 74 6.8413033150136471e-03</internalNodes>
          <leafValues>
            -6.3246750831604004e-01 6.0824739933013916e-01</leafValues></_>
        <_>
          <internalNodes>
            0 -1 66 -1.9778940081596375e-01</internalNodes>
          <leafValues>
            8.8008809089660645e-01 -2.1075282990932465e-01</leafValues></_>
        <_>
          <internalNodes>
            0 -1 30 -7.2049722075462341e-02</internalNodes>
          <leafValues>
            6.0632145404815674e-01 -2.8858619928359985e-01</leafValues></_>
        <_>
          <internalNodes>
            0 -1 32 2.6070877909660339e-02</internalNodes>
          <leafValues>
            2.3576739430427551e-01 -7.0751154422760010e-01</leafValues></_>
        <_>
          <internalNodes>
            0 -1 48 1.2891003862023354e-02</internalNodes>
          <leafValues>
            -2.1325136721134186e-01 5.5915093421936035e-01</leafValues></_>
        <_>
          <internalNodes>
            0 -1 82 1.6111710283439606e-04</internalNodes>
          <leafValues>
            3.2678571343421936e-01 -3.6881917715072632e-01</leafValues></_>
        <_>
          <internalNodes>
            0 -1 35 -8.9244134724140167e-03</internalNodes>
          <leafValues>
            2.9717174172401428e-01 -3.7805244326591492e-01</leafValues></_>
        <_>
          <internalNodes>
            0 -1 53 2.8888559341430664e-01</internalNodes>
          <leafValues>
            8.9858397841453552e-02 -1.</leafValues></_>
        <_>
          <internalNodes>
            0 -1 10 -2.0708864927291870e-01</internalNodes>
          <leafValues>
            6.9692271947860718e-01 -1.2497294694185257e-01</leafValues></_>
        <_>
          <internalNodes>
            0 -1 16 -1.6680486500263214e-01</internalNodes>
          <leafValues>
            6.5323138236999512e-01 -1.2650658190250397e-01</leafValues></_>
        <_>
          <internalNodes>
            0 -1 78 5.2234809845685959e-04</internalNodes>
          <leafValues>
            1.6054844856262207e-01 -5.3845459222793579e-01</leafValues></_>
        <_>
          <internalNodes>
            0 -1 3 2.3727264255285263e-02</internalNodes>
          <leafValues>
            -1.1620091646909714e-01 6.7258280515670776e-01</leafValues></_>
        <_>
          <internalNodes>
            0 -1 39 -1.7664919141680002e-03</internalNodes>
          <leafValues>
            3.2858127355575562e-01 -2.1912944316864014e-01</leafValues></_>
        <_>
          <internalNodes>
            0 -1 23 2.3350832983851433e-02</internalNodes>
          <leafValues>
            1.4469182491302490e-01 -5.8265769481658936e-01</leafValues></_></weakClassifiers></_>
    <!-- stage 1 -->
    <_>
      <maxWeakCount>18</maxWeakCount>
      <stageThreshold>-1.5365914106369019e+00</stageThreshold>
      <weakClassifiers>
        <_>
          <internalNodes>
            0 -1 74 6.8812873214483261e-03</internalNodes>
          <leafValues>
            -6.2732094526290894e-01 5.3094464540481567e-01</leafValues></_>
        <_>
          <internalNodes>
            0 -1 65 -1.5166381001472473e-01</internalNodes>
          <leafValues>
            7.8941321372985840e-01 -2.3411124944686890e-01</leafValues></_>
        <_>
          <internalNodes>
            0 -1 41 -1.1230840533971786e-01</internalNodes>
          <leafValues>
            6.2814027070999146e-01 -1.7018200457096100e-01</leafValues></_>
        <_>
          <internalNodes>
            0 -1 70 -2.6327311992645264e-02</internalNodes>
          <leafValues>
            3.8444516062736511e-01 -2.2897087037563324e-01</leafValues></_>
        <_>
          <internalNodes>
            0 -1 28 -2.0437086001038551e-02</internalNodes>
          <leafValues>
            4.4737786054611206e-01 -2.4218396842479706e-01</leafValues></_>
        <_>
          <internalNodes>
            0 -1 75 -4.9638352356851101e-03</internalNodes>
          <leafValues>
            -6.3970857858657837e-01 2.0784915983676910e-01</leafValues></_>
        <_>
          <internalNodes>
            0 -1 31 -8.0270261969417334e-04</internalNodes>
          <leafValues>
            2.2510352730751038e-01 -4.2014858126640320e-01</leafValues></_>
        <_>
          <internalNodes>
            0 -1 2 -2.1881174296140671e-02</internalNodes>
          <leafValues>
            4.3091586232185364e-01 -2.0065732300281525e-01</leafValues></_>
        <_>
          <internalNodes>
            0 -1 37 2.3143640719354153e-03</internalNodes>
          <leafValues>
            2.4419131875038147e-01 -2.9989740252494812e-01</leafValues></_>
        <_>
          <internalNodes>
            0 -1 20 8.2309797406196594e-02</internalNodes>
          <leafValues>
            1.1858212202787399e-01 -7.4050247669219971e-01</leafValues></_>
        <_>
          <internalNodes>
            0 -1 14 -2.2663727402687073e-02</internalNodes>
          <leafValues>
            3.8456404209136963e-01 -2.1551688015460968e-01</leafValues></_>
        <_>
          <internalNodes>
            0 -1 24 9.8284743726253510e-03</internalNodes>
          <leafValues>
            -1.5485973656177521e-01 4.9758243560791016e-01</leafValues></_>
        <_>
          <internalNodes>
            0 -1 0 1.8919043242931366e-02</internalNodes>
          <leafValues>
            -1.2444608658552170e-01 5.6722635030746460e-01</leafValues></_>
        <_>
          <internalNodes>
            0 -1 59 1.1419551447033882e-02</internalNodes>
          <leafValues>
            1.7387603223323822e-01 -5.5531299114227295e-01</leafValues></_>
        <_>
          <internalNodes>
            0 -1 60 3.4193200990557671e-03</internalNodes>
          <leafValues>
            -2.5636234879493713e-01 3.1789046525955200e-01</leafValues></_>
        <_>
          <internalNodes>
            0 -1 62 1.3480860739946365e-02</internalNodes>
          <leafValues>
            1.3579557836055756e-01 -5.6737565994262695e-01</leafValues></_>
        <_>
          <internalNodes>
            0 -1 13 -4.9001770094037056e-03</internalNodes>
          <leafValues>
            2.6836308836936951e-01 -2.7884560823440552e-01</leafValues></_>
        <_>
          <internalNodes>
            0 -1 45 1.1246483772993088e-02</internalNodes>
          <leafValues>
            1.5994592010974884e-01 -5.4270178079605103e-01</leafValues></_></weakClassifiers></_>
    <!-- stage 2 -->
    <_>
      <maxWeakCount>19</maxWeakCount>
      <stageThreshold>-1.5474591255187988e+00</stageThreshold>
      <weakClassifiers>
        <_>
          <internalNodes>
            0 -1 5 -2.0521521568298340e-01</internalNodes>
          <leafValues>
            9.3808048963546753e-01 -5.1306283473968506e-01</leafValues></_>
        <_>
          <internalNodes>
            0 -1 34 3.2851964235305786e-02</internalNodes>
          <leafValues>
            -2.3535974323749542e-01 6.7700868844985962e-01</leafValues></_>
        <_>
          <internalNodes>
            0 -1 72 -5.1808003336191177e-03</internalNodes>
          <leafValues>
            2.9750671982765198e-01 -3.5503032803535461e-01</leafValues></_>
        <_>
          <internalNodes>
            0 -1 36 -2.2426541894674301e-02</internalNodes>
          <leafValues>
            4.9949008226394653e-01 -1.9060583412647247e-01</leafValues></_>
        <_>
          <internalNodes>
            0 -1 49 1.8722405657172203e-03</internalNodes>
          <leafValues>
            -3.0884841084480286e-01 3.1848818063735962e-01</leafValues></_>
        <_>
          <internalNodes>
            0 -1 4 -4.0785275399684906e-02</internalNodes>
          <leafValues>
            3.6315575242042542e-01 -2.5538456439971924e-01</leafValues></_>
        <_>
          <internalNodes>
            0 -1 21 4.7977268695831299e-02</internalNodes>
          <leafValues>
            1.7807118594646454e-01 -6.2202006578445435e-01</leafValues></_>
        <_>
          <internalNodes>
            0 -1 67 -8.8188418885692954e-05</internalNodes>
          <leafValues>
            2.0161707699298859e-01 -4.1290017962455750e-01</leafValues></_>
        <_>
          <internalNodes>
            0 -1 73 1.7522138077765703e-03</internalNodes>
          <leafValues>
            -2.3123145103454590e-01 3.6605748534202576e-01</leafValues></_>
        <_>
          <internalNodes>
            0 -1 58 -7.7548176050186157e-02</internalNodes>
          <leafValues>
            -6.9067311286926270e-01 1.1692203581333160e-01</leafValues></_>
        <_>
          <internalNodes>
            0 -1 33 -1.8872436136007309e-02</internalNodes>
          <leafValues>
            3.9277788996696472e-01 -2.5408563017845154e-01</leafValues></_>
        <_>
          <internalNodes>
            0 -1 50 -4.8307180404663086e-03</internalNodes>
          <leafValues>
            3.9757126569747925e-01 -2.0273369550704956e-01</leafValues></_>
        <_>
          <internalNodes>
            0 -1 79 -9.8013067618012428e-03</internalNodes>
          <leafValues>
            -8.0242824554443359e-01 1.0475713759660721e-01</leafValues></_>
        <_>
          <internalNodes>
            0 -1 19 -4.4014488230459392e-04</internalNodes>
          <leafValues>
            1.9010858237743378e-01 -3.8213211297988892e-01</leafValues></_>
        <_>
          <internalNodes>
            0 -1 22 1.8180023878812790e-02</internalNodes>
          <leafValues>
            -1.0772693157196045e-01 8.2812458276748657e-01</leafValues></_>
        <_>
          <internalNodes>
            0 -1 68 -2.5490723550319672e-02</internalNodes>
          <leafValues>
            -8.0558222532272339e-01 1.2764225900173187e-01</leafValues></_>
        <_>
          <internalNodes>
            0 -1 43 2.0290184766054153e-02</internalNodes>
          <leafValues>
            -1.7563943564891815e-01 5.0923556089401245e-01</leafValues></_>
        <_>
          <internalNodes>
            0 -1 63 -9.3649243935942650e-03</internalNodes>
          <leafValues>
            -9.2785078287124634e-01 8.6327031254768372e-02</leafValues></_>
        <_>
          <internalNodes>
            0 -1 44 1.2390026822686195e-02</internalNodes>
          <leafValues>
            -1.7257231473922729e-01 5.6644940376281738e-01</leafValues></_></weakClassifiers></_>
    <!-- stage 3 -->
    <_>
      <maxWeakCount>14</maxWeakCount>
      <stageThreshold>-1.2095532417297363e+00</stageThreshold>
      <weakClassifiers>
        <_>
          <internalNodes>
            0 -1 76 -2.4684503674507141e-02</internalNodes>
          <leafValues>
            9.3413174152374268e-01 -5.2125281095504761e-01</leafValues></_>
        <_>
          <internalNodes>
            0 -1 64 1.4644139446318150e-03</internalNodes>
          <leafValues>
            4.2593705654144287e-01 -4.8331448435783386e-01</leafValues></_>
        <_>
          <internalNodes>
            0 -1 15 -1.0114540345966816e-02</internalNodes>
          <leafValues>
            8.5570073127746582e-01 -1.5426822006702423e-01</leafValues></_>
        <_>
          <internalNodes>
            0 -1 80 -2.3890144657343626e-03</internalNodes>
          <leafValues>
            5.3358525037765503e-01 -1.9638161361217499e-01</leafValues></_>
        <_>
          <internalNodes>
            0 -1 38 -8.4607303142547607e-02</internalNodes>
          <leafValues>
            4.2593100666999817e-01 -2.9740700125694275e-01</leafValues></_>
        <_>
          <internalNodes>
            0 -1 40 1.5028584748506546e-02</internalNodes>
          <leafValues>
            -1.4184671640396118e-01 6.5474259853363037e-01</leafValues></_>
        <_>
          <internalNodes>
            0 -1 55 -2.3570575285702944e-03</internalNodes>
          <leafValues>
            4.0420624613761902e-01 -2.4373592436313629e-01</leafValues></_>
        <_>
          <internalNodes>
            0 -1 57 -1.9283982692286372e-03</internalNodes>
          <leafValues>
            4.3587779998779297e-01 -1.9968198239803314e-01</leafValues></_>
        <_>
          <internalNodes>
            0 -1 29 -9.9708005785942078e-02</internalNodes>
          <leafValues>
            9.1453897953033447e-01 -1.5137133002281189e-01</leafValues></_>
        <_>
          <internalNodes>
            0 -1 26 1.5763132832944393e-03</internalNodes>
          <leafValues>
            4.0157800912857056e-01 -2.3591063916683197e-01</leafValues></_>
        <_>
          <internalNodes>
            0 -1 18 7.4374422430992126e-02</internalNodes>
          <leafValues>
            1.7089156806468964e-01 -6.4181584119796753e-01</leafValues></_>
        <_>
          <internalNodes>
            0 -1 6 -5.2484720945358276e-02</internalNodes>
          <leafValues>
            1. -1.3874779641628265e-01</leafValues></_>
        <_>
          <internalNodes>
            0 -1 17 -2.6611488312482834e-02</internalNodes>
          <leafValues>
            8.5966062545776367e-01 -8.9787609875202179e-02</leafValues></_>
        <_>
          <internalNodes>
            0 -1 77 -2.3340035113506019e-04</internalNodes>
          <leafValues>
            2.8302955627441406e-01 -4.4772931933403015e-01</leafValues></_></weakClassifiers></_>
    <!-- stage 4 -->
    <_>
      <maxWeakCount>10</maxWeakCount>
      <stageThreshold>-1.5017472505569458e+00</stageThreshold>
      <weakClassifiers>
        <_>
          <internalNodes>
            0 -1 81 8.4342919290065765e-03</internalNodes>
          <leafValues>
            -5.5618613958358765e-01 1.</leafValues></_>
        <_>
          <internalNodes>
            0 -1 1 8.1146378070116043e-03</internalNodes>
          <leafValues>
            -2.7466377615928650e-01 9.2639404535293579e-01</leafValues></_>
        <_>
          <internalNodes>
            0 -1 69 -8.5666114464402199e-03</internalNodes>
          <leafValues>
            5.4872220754623413e-01 -3.5312828421592712e-01</leafValues></_>
        <_>
          <internalNodes>
            0 -1 61 4.2780215153470635e-04</internalNodes>
          <leafValues>
            -2.8433865308761597e-01 4.8803645372390747e-01</leafValues></_>
        <_>
          <internalNodes>
            0 -1 53 -3.0561763048171997e-01</internalNodes>
          <leafValues>
            8.1743538379669189e-01 -2.2665947675704956e-01</leafValues></_>
        <_>
          <internalNodes>
            0 -1 13 -4.9781496636569500e-03</internalNodes>
          <leafValues>
            4.1944542527198792e-01 -3.7065276503562927e-01</leafValues></_>
        <_>
          <internalNodes>
            0 -1 12 2.9930816963315010e-02</internalNodes>
          <leafValues>
            -1.5172010660171509e-01 7.3906362056732178e-01</leafValues></_>
        <_>
          <internalNodes>
            0 -1 7 -5.8071322739124298e-02</internalNodes>
          <leafValues>
            7.0738857984542847e-01 -1.8509685993194580e-01</leafValues></_>
        <_>
          <internalNodes>
            0 -1 47 -8.5788278374820948e-04</internalNodes>
          <leafValues>
            5.1192981004714966e-01 -2.6158559322357178e-01</leafValues></_>
        <_>
          <internalNodes>
            0 -1 52 -3.2962847501039505e-02</internalNodes>
          <leafValues>
            -5.2966427803039551e-01 2.8845334053039551e-01</leafValues></_></weakClassifiers></_>
    <!-- stage 5 -->
    <_>
      <maxWeakCount>7</maxWeakCount>
      <stageThreshold>-1.3114420175552368e+00</stageThreshold>
      <weakClassifiers>
        <_>
          <internalNodes>
            0 -1 71 1.2418147176504135e-02</internalNodes>
          <leafValues>
            -7.0168614387512207e-01 7.9655170440673828e-01</leafValues></_>
        <_>
          <internalNodes>
            0 -1 54 -9.6560893580317497e-03</internalNodes>
          <leafValues>
            1. -3.1590911746025085e-01</leafValues></_>
        <_>
          <internalNodes>
            0 -1 42 -1.5785288996994495e-04</internalNodes>
          <leafValues>
            7.1581596136093140e-01 -3.6955916881561279e-01</leafValues></_>
        <_>
          <internalNodes>
            0 -1 11 6.3962817192077637e-02</internalNodes>
          <leafValues>
            4.0467399358749390e-01 -7.7146160602569580e-01</leafValues></_>
        <_>
          <internalNodes>
            0 -1 27 -7.8891426324844360e-02</internalNodes>
          <leafValues>
            -5.1794260740280151e-01 5.7224655151367188e-01</leafValues></_>
        <_>
          <internalNodes>
            0 -1 46 3.2193813240155578e-04</internalNodes>
          <leafValues>
            8.5845458507537842e-01 -3.7146726250648499e-01</leafValues></_>
        <_>
          <internalNodes>
            0 -1 25 4.3328769505023956e-02</internalNodes>
          <leafValues>
            5.6044828891754150e-01 -4.1633564233779907e-01</leafValues></_></weakClassifiers></_>
    <!-- stage 6 -->
    <_>
      <maxWeakCount>4</maxWeakCount>
      <stageThreshold>-8.8154429197311401e-01</stageThreshold>
      <weakClassifiers>
        <_>
          <internalNodes>
            0 -1 56 2.9959022067487240e-03</internalNodes>
          <leafValues>
            1. -8.2921946048736572e-01</leafValues></_>
        <_>
          <internalNodes>
            0 -1 8 1.2152732349932194e-02</internalNodes>
          <leafValues>
            -5.9689354896545410e-01 1.</leafValues></_>
        <_>
          <internalNodes>
            0 -1 9 -1.5511923469603062e-02</internalNodes>
          <leafValues>
            -4.5543128252029419e-01 1.</leafValues></_>
        <_>
          <internalNodes>
            0 -1 51 -4.5016792137175798e-04</internalNodes>
          <leafValues>
            -3.7933054566383362e-01 1.</leafValues></_></weakClassifiers></_></stages>
  <features>
    <_>
      <rects>
        <_>
          0 0 2 11 -1.</_>
        <_>
          1 0 1 11 2.</_></rects>
      <tilted>0</tilted></_>
    <_>
      <rects>
        <_>
          0 1 3 3 -1.</_>
        <_>
          1 1 1 3 3.</_></rects>
      <tilted>0</tilted></_>
    <_>
      <rects>
        <_>
          0 1 1 10 -1.</_>
        <_>
          0 6 1 5 2.</_></rects>
      <tilted>0</tilted></_>
    <_>
      <rects>
        <_>
          0 1 2 9 -1.</_>
        <_>
          1 1 1 9 2.</_></rects>
      <tilted>0</tilted></_>
    <_>
      <rects>
        <_>
          0 2 2 10 -1.</_>
        <_>
          0 7 2 5 2.</_></rects>
      <tilted>0</tilted></_>
    <_>
      <rects>
        <_>
          0 2 12 8 -1.</_>
        <_>
          4 2 4 8 3.</_></rects>
      <tilted>0</tilted></_>
    <_>
      <rects>
        <_>
          0 3 9 2 -1.</_>
        <_>
          3 3 3 2 3.</_></rects>
      <tilted>0</tilted></_>
    <_>
      <rects>
        <_>
          0 3 8 8 -1.</_>
        <_>
          4 3 4 8 2.</_></rects>
      <tilted>0</tilted></_>
    <_>
      <rects>
        <_>
          0 3 12 6 -1.</_>
        <_>
          0 5 12 2 3.</_></rects>
      <tilted>0</tilted></_>
    <_>
      <rects>
        <_>
          0 3 14 3 -1.</_>
        <_>
          0 4 14 1 3.</_></rects>
      <tilted>0</tilted></_>
    <_>
      <rects>
        <_>
          1 3 15 8 -1.</_>
        <_>
          6 3 5 8 3.</_></rects>
      <tilted>0</tilted></_>
    <_>
      <rects>
        <_>
          1 5 12 4 -1.</_>
        <_>
          1 5 6 2 2.</_>
        <_>
          7 7 6 2 2.</_></rects>
      <tilted>0</tilted></_>
    <_>
      <rects>
        <_>
          1 6 6 4 -1.</_>
        <_>
          4 6 3 4 2.</_></rects>
      <tilted>0</tilted></_>
    <_>
      <rects>
        <_>
          1 8 1 4 -1.</_>
        <_>
          1 10 1 2 2.</_></rects>
      <tilted>0</tilted></_>
    <_>
      <rects>
        <_>
          2 0 4 10 -1.</_>
        <_>
          2 0 2 5 2.</_>
        <_>
          4 5 2 5 2.</_></rects>
      <tilted>0</tilted></_>
    <_>
      <rects>
        <_>
          2 1 2 4 -1.</_>
        <_>
          2 1 1 2 2.</_>
        <_>
          3 3 1 2 2.</_></rects>
      <tilted>0</tilted></_>
    <_>
      <rects>
        <_>
          2 3 16 3 -1.</_>
        <_>
          10 3 8 3 2.</_></rects>
      <tilted>0</tilted></_>
    <_>
      <rects>
        <_>
          2 5 1 6 -1.</_>
        <_>
          2 8 1 3 2.</_></rects>
      <tilted>0</tilted></_>
    <_>
      <rects>
        <_>
          2 7 14 5 -1.</_>
        <_>
          9 7 7 5 2.</_></rects>
      <tilted>0</tilted></_>
    <_>
      <rects>
        <_>
          2 8 1 2 -1.</_>
        <_>
          2 9 1 1 2.</_></rects>
      <tilted>0</tilted></_>
    <_>
      <rects>
        <_>
          2 8 14 4 -1.</_>
        <_>
          9 8 7 4 2.</_></rects>
      <tilted>0</tilted></_>
    <_>
      <rects>
        <_>
          3 0 15 3 -1.</_>
        <_>
          3 1 15 1 3.</_></rects>
      <tilted>0</tilted></_>
    <_>
      <rects>
        <_>
          3 5 3 6 -1.</_>
        <_>
          4 5 1 6 3.</_></rects>
      <tilted>0</tilted></_>
    <_>
      <rects>
        <_>
          3 11 12 1 -1.</_>
        <_>
          7 11 4 1 3.</_></rects>
      <tilted>0</tilted></_>
    <_>
      <rects>
        <_>
          4 0 2 8 -1.</_>
        <_>
          4 0 1 4 2.</_>
        <_>
          5 4 1 4 2.</_></rects>
      <tilted>0</tilted></_>
    <_>
      <rects>
        <_>
          4 0 12 5 -1.</_>
        <_>
          8 0 4 5 3.</_></rects>
      <tilted>0</tilted></_>
    <_>
      <rects>
        <_>
          4 1 9 3 -1.</_>
        <_>
          7 1 3 3 3.</_></rects>
      <tilted>0</tilted></_>
    <_>
      <rects>
        <_>
          4 3 8 6 -1.</_>
        <_>
          4 6 8 3 2.</_></rects>
      <tilted>0</tilted></_>
    <_>
      <rects>
        <_>
          4 4 4 6 -1.</_>
        <_>
          6 4 2 6 2.</_></rects>
      <tilted>0</tilted></_>
    <_>
      <rects>
        <_>
          4 5 9 7 -1.</_>
        <_>
          7 5 3 7 3.</_></rects>
      <tilted>0</tilted></_>
    <_>
      <rects>
        <_>
          4 5 14 2 -1.</_>
        <_>
          11 5 7 2 2.</_></rects>
      <tilted>0</tilted></_>
    <_>
      <rects>
        <_>
          4 8 3 2 -1.</_>
        <_>
          4 9 3 1 2.</_></rects>
      <tilted>0</tilted></_>
    <_>
      <rects>
        <_>
          4 11 14 1 -1.</_>
        <_>
          11 11 7 1 2.</_></rects>
      <tilted>0</tilted></_>
    <_>
      <rects>
        <_>
          5 4 9 6 -1.</_>
        <_>
          8 4 3 6 3.</_></rects>
      <tilted>0</tilted></_>
    <_>
      <rects>
        <_>
          5 5 9 2 -1.</_>
        <_>
          8 5 3 2 3.</_></rects>
      <tilted>0</tilted></_>
    <_>
      <rects>
        <_>
          5 7 3 4 -1.</_>
        <_>
          5 9 3 2 2.</_></rects>
      <tilted>0</tilted></_>
    <_>
      <rects>
        <_>
          6 2 6 3 -1.</_>
        <_>
          8 2 2 3 3.</_></rects>
      <tilted>0</tilted></_>
    <_>
      <rects>
        <_>
          6 3 12 4 -1.</_>
        <_>
          6 3 6 2 2.</_>
        <_>
          12 5 6 2 2.</_></rects>
      <tilted>0</tilted></_>
    <_>
      <rects>
        <_>
          6 3 12 3 -1.</_>
        <_>
          12 3 6 3 2.</_></rects>
      <tilted>0</tilted></_>
    <_>
      <rects>
        <_>
          6 4 2 2 -1.</_>
        <_>
          7 4 1 2 2.</_></rects>
      <tilted>0</tilted></_>
    <_>
      <rects>
        <_>
          6 4 12 2 -1.</_>
        <_>
          12 4 6 2 2.</_></rects>
      <tilted>0</tilted></_>
    <_>
      <rects>
        <_>
          6 4 12 3 -1.</_>
        <_>
          12 4 6 3 2.</_></rects>
      <tilted>0</tilted></_>
    <_>
      <rects>
        <_>
          7 0 2 2 -1.</_>
        <_>
          7 0 1 1 2.</_>
        <_>
          8 1 1 1 2.</_></rects>
      <tilted>0</tilted></_>
    <_>
      <rects>
        <_>
          7 1 4 10 -1.</_>
        <_>
          9 1 2 10 2.</_></rects>
      <tilted>0</tilted></_>
    <_>
      <rects>
        <_>
          7 3 3 6 -1.</_>
        <_>
          8 3 1 6 3.</_></rects>
      <tilted>0</tilted></_>
    <_>
      <rects>
        <_>
          7 6 6 3 -1.</_>
        <_>
          7 7 6 1 3.</_></rects>
      <tilted>0</tilted></_>
    <_>
      <rects>
        <_>
          7 11 6 1 -1.</_>
        <_>
          9 11 2 1 3.</_></rects>
      <tilted>0</tilted></_>
    <_>
      <rects>
        <_>
          8 0 1 3 -1.</_>
        <_>
          8 1 1 1 3.</_></rects>
      <tilted>0</tilted></_>
    <_>
      <rects>
        <_>
          8 2 6 6 -1.</_>
        <_>
          11 2 3 6 2.</_></rects>
      <tilted>0</tilted></_>
    <_>
      <rects>
        <_>
          8 5 4 4 -1.</_>
        <_>
          8 5 2 2 2.</_>
        <_>
          10 7 2 2 2.</_></rects>
      <tilted>0</tilted></_>
    <_>
      <rects>
        <_>
          8 7 4 2 -1.</_>
        <_>
          10 7 2 2 2.</_></rects>
      <tilted>0</tilted></_>
    <_>
      <rects>
        <_>
          9 0 6 1 -1.</_>
        <_>
          11 0 2 1 3.</_></rects>
      <tilted>0</tilted></_>
    <_>
      <rects>
        <_>
          9 1 6 8 -1.</_>
        <_>
          9 1 3 4 2.</_>
        <_>
          12 5 3 4 2.</_></rects>
      <tilted>0</tilted></_>
    <_>
      <rects>
        <_>
          9 2 9 10 -1.</_>
        <_>
          9 7 9 5 2.</_></rects>
      <tilted>0</tilted></_>
    <_>
      <rects>
        <_>
          9 3 4 4 -1.</_>
        <_>
          9 3 2 2 2.</_>
        <_>
          11 5 2 2 2.</_></rects>
      <tilted>0</tilted></_>
    <_>
      <rects>
        <_>
          9 9 2 2 -1.</_>
        <_>
          9 10 2 1 2.</_></rects>
      <tilted>0</tilted></_>
    <_>
      <rects>
        <_>
          10 0 8 2 -1.</_>
        <_>
          10 1 8 1 2.</_></rects>
      <tilted>0</tilted></_>
    <_>
      <rects>
        <_>
          10 2 6 1 -1.</_>
        <_>
          12 2 2 1 3.</_></rects>
      <tilted>0</tilted></_>
    <_>
      <rects>
        <_>
          10 3 3 9 -1.</_>
        <_>
          10 6 3 3 3.</_></rects>
      <tilted>0</tilted></_>
    <_>
      <rects>
        <_>
          10 5 3 3 -1.</_>
        <_>
          10 6 3 1 3.</_></rects>
      <tilted>0</tilted></_>
    <_>
      <rects>
        <_>
          11 4 3 4 -1.</_>
        <_>
          12 4 1 4 3.</_></rects>
      <tilted>0</tilted></_>
    <_>
      <rects>
        <_>
          12 3 2 6 -1.</_>
        <_>
          12 3 1 3 2.</_>
        <_>
          13 6 1 3 2.</_></rects>
      <tilted>0</tilted></_>
    <_>
      <rects>
        <_>
          12 4 4 3 -1.</_>
        <_>
          12 5 4 1 3.</_></rects>
      <tilted>0</tilted></_>
    <_>
      <rects>
        <_>
          12 6 1 3 -1.</_>
        <_>
          12 7 1 1 3.</_></rects>
      <tilted>0</tilted></_>
    <_>
      <rects>
        <_>
          13 0 5 2 -1.</_>
        <_>
          13 1 5 1 2.</_></rects>
      <tilted>0</tilted></_>
    <_>
      <rects>
        <_>
          13 2 3 10 -1.</_>
        <_>
          13 7 3 5 2.</_></rects>
      <tilted>0</tilted></_>
    <_>
      <rects>
        <_>
          13 3 5 8 -1.</_>
        <_>
          13 7 5 4 2.</_></rects>
      <tilted>0</tilted></_>
    <_>
      <rects>
        <_>
          13 10 2 1 -1.</_>
        <_>
          14 10 1 1 2.</_></rects>
      <tilted>0</tilted></_>
    <_>
      <rects>
        <_>
          14 0 2 4 -1.</_>
        <_>
          14 2 2 2 2.</_></rects>
      <tilted>0</tilted></_>
    <_>
      <rects>
        <_>
          14 3 4 3 -1.</_>
        <_>
          16 3 2 3 2.</_></rects>
      <tilted>0</tilted></_>
    <_>
      <rects>
        <_>
          14 3 4 8 -1.</_>
        <_>
          16 3 2 8 2.</_></rects>
      <tilted>0</tilted></_>
    <_>
      <rects>
        <_>
          14 4 4 4 -1.</_>
        <_>
          14 4 2 2 2.</_>
        <_>
          16 6 2 2 2.</_></rects>
      <tilted>0</tilted></_>
    <_>
      <rects>
        <_>
          14 4 4 3 -1.</_>
        <_>
          16 4 2 3 2.</_></rects>
      <tilted>0</tilted></_>
    <_>
      <rects>
        <_>
          14 5 2 6 -1.</_>
        <_>
          15 5 1 6 2.</_></rects>
      <tilted>0</tilted></_>
    <_>
      <rects>
        <_>
          14 8 2 3 -1.</_>
        <_>
          15 8 1 3 2.</_></rects>
      <tilted>0</tilted></_>
    <_>
      <rects>
        <_>
          15 5 3 5 -1.</_>
        <_>
          16 5 1 5 3.</_></rects>
      <tilted>0</tilted></_>
    <_>
      <rects>
        <_>
          15 6 2 3 -1.</_>
        <_>
          15 7 2 1 3.</_></rects>
      <tilted>0</tilted></_>
    <_>
      <rects>
        <_>
          15 9 2 3 -1.</_>
        <_>
          16 9 1 3 2.</_></rects>
      <tilted>0</tilted></_>
    <_>
      <rects>
        <_>
          15 11 3 1 -1.</_>
        <_>
          16 11 1 1 3.</_></rects>
      <tilted>0</tilted></_>
    <_>
      <rects>
        <_>
          16 3 2 3 -1.</_>
        <_>
          17 3 1 3 2.</_></rects>
      <tilted>0</tilted></_>
    <_>
      <rects>
        <_>
          16 5 2 2 -1.</_>
        <_>
          16 6 2 1 2.</_></rects>
      <tilted>0</tilted></_>
    <_>
      <rects>
        <_>
          16 8 1 3 -1.</_>
        <_>
          16 9 1 1 3.</_></rects>
      <tilted>0</tilted></_>
    <_>
      <rects>
        <_>
          17 2 1 4 -1.</_>
        <_>
          17 4 1 2 2.</_></rects>
      <tilted>0</tilted></_></features></cascade>
</opencv_storage>
